2068 100
de 0.036431476 -0.40153873 0.3906065 -0.55730796 -0.094272345 -0.19560458 0.23206204 0.40491605 -0.22395608 -0.1177957 0.06537583 -0.45897934 0.06352214 0.0275786 0.03016258 0.29577577 -0.0783203 -0.15994877 0.28638145 0.199607 0.39509526 0.392292 0.22524068 -0.34947166 0.12703107 -0.2491321 -0.056136772 -0.058104303 0.03155203 -0.08765165 0.18143293 -0.14493266 -0.031224718 -0.32830727 0.038142174 0.12450507 0.2164733 -0.008133917 -0.026853636 0.050231893 -0.101765595 -0.11392806 -0.18584402 0.06341085 -0.035861637 0.22680424 -0.34099594 0.4492632 -0.13799034 0.21939681 -0.08914253 0.079564266 -0.041081853 0.17845155 -0.15578416 -0.13782945 0.43953326 0.13813971 0.22542979 0.18850467 0.010855453 0.33185333 -0.16948645 -0.060922157 -0.25265026 0.33982515 0.12566198 -0.104446806 0.06061256 0.13781552 -0.076031335 0.092684805 0.0985573 -0.38616624 0.23231162 -0.35518712 0.232566 -0.61955714 0.47304899 0.035082422 -0.38319153 0.074265905 -0.30693546 -0.041892372 -0.061424393 -0.07116889 0.03304286 -0.08808473 0.18218273 0.37318653 -0.24042962 0.20902243 0.08477958 -0.02105391 0.27883705 0.2764292 0.08336285 -0.29405314 0.08314578 0.2675322
el -0.53407335 0.1852795 0.2789132 -0.18111241 0.12701826 -0.19876353 0.01763781 0.47454798 -0.27720952 -0.33452466 0.010098145 -0.10204055 0.3963591 0.4289552 0.5066955 0.62510353 -0.10545246 0.12650003 0.2891462 0.06882487 0.43843642 0.061405886 0.5135252 -0.26691076 0.25388512 -0.047444645 -0.13000351 -0.12143413 -0.024441691 -0.08863054 0.25604907 -0.31358758 -0.14305463 -0.30497128 0.32377225 0.49551225 0.22862664 -0.04980031 -0.3725572 0.058573447 -0.025101185 -0.5516963 -0.22082676 -0.029404493 -0.113129385 -0.031668246 0.093228705 0.16113825 -0.29289344 -0.16045038 0.26150423 -0.007299741 -0.23435394 -0.031249046 -0.20684715 0.08013023 0.42592594 0.44007444 0.129748 0.04628435 -0.12838255 0.20577104 0.18214905 0.40991604 -0.07381276 0.6299855 0.07688209 -0.04040918 -0.047622666 0.5283453 -0.31883234 -0.0017729872 0.030042542 0.06519379 0.05521341 -0.04987655 -0.15634239 -0.5471044 0.40225348 0.11031255 -0.5427659 0.15963848 -0.3293432 -0.16562155 -0.22580366 -0.23034935 -0.16159944 -0.393286 0.40110976 0.04470223 0.050104413 0.124480024 -0.1094952 -0.13463442 0.08991162 -0.009294196 0.5376706 -0.24890491 -0.23585482 0.312685
en -0.026836224 -0.16401938 0.04685244 -0.62489307 0.03983324 0.023375764 -0.15471533 0.4409174 -0.6589493 -0.017191848 -0.29545942 -0.37830076 0.27154753 0.19874589 0.16610047 0.047964048 0.37563217 0.07013581 0.2973447 0.07770087 -0.06191255 -0.15372409 0.5132581 -0.16461802 0.40063715 -0.3628057 0.15650035 0.12328489 0.45841268 0.035357643 -0.120872706 -0.2137644 0.0054533086 -0.15282685 -0.32043386 0.49743444 0.28417206 -0.059942245 -0.29647887 0.12925602 -0.27659604 -0.013466924 -0.11510867 0.15498737 0.04597153 0.40216944 -0.1845179 -0.14790672 -0.37586245 0.1898604 0.4352751 0.18310297 -0.1657775 0.022888778 -0.35214165 -0.15634567 -0.06277718 0.22345431 0.06520623 -0.17164467 0.14046334 -0.282744 -0.07036849 0.08944962 -0.05363429 0.3688694 0.3913367 -0.32861543 0.05535043 0.17346567 -0.19587223 0.18665889 -0.012131875 -0.3458407 0.11269679 -0.04269943 0.68859184 -0.15679789 0.5917863 0.56898993 -0.3247029 -0.42883947 -0.28059888 -0.22750083 0.19978225 -0.2822227 -0.18502742 -0.09361446 0.3303795 0.23582983 -0.18768366 0.08074652 0.09568902 -0.32897928 0.12120462 0.26811984 0.3451632 -0.1653756 0.3526588 -0.022339636
a -0.8973495 0.20522451 0.27897608 -0.6922793 -0.098366626 -0.113228805 -0.1037001 -0.10196328 -5.8306046e-05 0.01502624 0.21944854 -0.10994397 0.35948557 -0.2493534 0.2090681 0.015621339 0.47209555 -0.22240871 -0.07863993 0.37114823 0.3914424 -0.011511732 0.98379093 -0.20343326 -0.17231974 -0.10455314 0.045320783 -0.034842197 0.08246194 -0.42569843 0.30458724 0.30215025 -0.40856734 0.12716278 0.114691585 0.3355641 0.588055 -0.42773297 -0.77812546 0.047047023 -0.060958214 0.00035782577 0.20416705 -0.66160166 0.12417406 -0.08194319 -0.031206746 -0.04554749 -0.42050508 -0.3510069 0.2880675 -0.27855468 -0.46002814 0.35118777 -0.36649796 0.08086003 0.26386192 0.53247154 0.25336236 -0.09997556 0.23759261 0.04289814 0.20558557 0.18849333 -0.20763625 -0.25895232 -0.1434161 0.0035364795 -0.12275714 0.3354146 -0.07387477 -0.5688497 -0.30102447 -0.08422308 0.15573594 -0.646125 0.20470676 0.04225893 -0.10405717 0.13536867 -0.1470736 0.17644505 0.13958904 0.24760804 -0.44488826 0.14238636 -0.12289853 0.3550196 0.21118245 0.110588856 -0.29115126 0.16490354 -0.18354733 -0.07869259 0.31084362 0.00895654 0.40519685 -0.07233051 0.2394738 -0.08085035
la -0.25071353 -0.22834627 0.20578815 -0.361023 -0.12901422 0.10207446 0.050889503 0.43802133 -0.45407125 -0.08087594 -0.4813833 -0.19279222 0.06531588 0.33601385 -0.14392398 0.35700634 0.13290708 -0.29480603 0.25563613 -0.058696527 0.35206747 -0.16237584 0.7453213 -0.45841202 0.0018132968 -0.22488442 -0.28954363 0.023093853 -0.061498273 -0.16242151 0.39454842 0.13541055 0.0073146517 -0.32637832 0.17085633 0.21708617 0.21287437 -0.040967632 -0.32048544 0.09594881 0.14918278 -0.31257668 -0.46480006 0.27268872 0.26450625 -0.20240802 -0.2682342 0.12877852 -0.20442332 -0.072318316 -0.40321645 0.035881307 0.15712579 0.19966975 -0.10444947 -0.28316063 -0.06541653 0.2046605 -0.20160589 0.035328545 0.23233241 -0.0017528654 0.11706795 0.11382992 -0.21184026 0.05513406 0.06866816 0.14979787 0.5655862 0.7142377 -0.3284976 -0.112213366 -0.13669197 -0.107873484 -0.1164693 -0.15789239 0.20704791 -0.53400093 0.6020364 -0.08309434 -0.53915316 -0.38839048 -0.2320848 -0.26027587 -0.46188977 -0.16053846 0.22336033 -0.09481689 0.050885748 0.35463652 -0.25266212 0.18219693 -0.089913756 -0.10040036 0.10428118 0.19123802 0.41664112 -0.0005423594 0.4613114 0.25139272
para -0.42241806 -0.039795864 0.5705531 -0.32486334 -0.60619426 -0.17547637 0.14427531 0.48140344 -0.43262556 -0.42713276 -0.43188348 -0.17717788 -0.10378734 -0.32928124 0.04218891 -0.315469 -0.54433894 -0.59705573 0.67649496 0.48748156 0.36640555 0.3389013 0.14084698 0.21195124 -0.31710297 -0.23019925 -0.4715225 -0.021556731 0.55167496 0.32654232 0.14369176 -0.34587023 -0.3872256 -0.11483565 -0.17089514 0.5276364 0.9496831 -0.3319698 -0.23117155 0.5732341 0.38809383 -0.26891446 -0.1320289 -0.41567963 -0.27714366 -0.091329865 -0.17820904 0.23242244 -0.04345221 0.007244644 -0.06382917 -0.2244907 -0.08190678 0.41602582 -0.6442993 0.14218558 0.49810943 0.46877497 -0.009545873 -0.78333056 -0.16888449 0.24824439 0.4538458 -0.23615646 -0.31746754 0.36393738 0.047414787 -0.13060701 -0.29215378 -0.14305198 -0.17449261 0.39056402 0.24358602 0.42486638 -0.008336094 0.09985584 -0.29582018 -0.3528762 0.009586141 0.16274753 -0.33039325 -0.1760991 -0.6016181 0.2326512 -0.19669236 -0.6417359 -0.22865091 -0.033825845 0.3741868 -0.09935009 -0.02148206 0.7305869 -0.35750479 0.0720062 0.24129017 0.3699897 0.23905875 -0.33631653 0.11865958 0.22255239
que 0.28597715 0.022292519 0.14382009 -0.070569985 -0.20977835 0.30161354 0.17134576 -0.012064131 -0.22479403 -0.20185345 -0.037843995 0.15215746 0.517819 0.15221934 0.05457904 -0.09047899 0.31351048 -0.08050596 0.4157178 -0.25016248 0.6016449 -0.029094696 0.344636 0.076518595 -0.2923206 0.14682333 -0.21429239 -0.44654855 0.2761152 0.135102 -0.10001742 0.45076346 -0.3885803 -0.04694595 -0.23196375 0.28535968 -0.250996 -0.40731713 -0.5867217 -0.23628575 0.47303414 -0.33740482 0.3793881 -0.25123823 -0.072088726 0.39550072 -0.511941 -0.29375604 -0.18828478 0.019995166 0.13067286 -0.24968846 -0.7108639 0.5466627 -0.41886032 -0.17483845 -0.15148634 -0.07602028 -0.3872105 -0.62638825 0.028137334 0.09785682 0.22683619 0.11608652 -0.18617007 0.101470396 -0.1696239 -0.6638884 -0.23662186 0.048029993 0.07064556 0.42833766 -0.2846461 -0.1406819 0.1372203 -0.21541621 -0.035237364 -0.31025875 0.29797193 0.6497225 0.053220768 -0.069183975 -0.053733945 0.17099072 -0.2696027 -0.15287207 0.112106025 0.28241253 -0.3028974 0.18461339 -0.47933054 0.17254087 -0.32455903 0.20033854 -0.28763536 0.35038447 0.40788412 -0.21559161 -0.3203679 0.22190794
una 0.38384923 -0.48440287 0.069769286 -0.3569335 -0.2709893 -0.16842818 0.17989671 0.005155603 -0.3042683 -0.11974435 -0.12578654 -0.06771389 0.22335264 -0.2723903 -0.21871904 0.22523385 0.23081742 -0.33322287 -0.0016780396 -0.13749999 0.39660743 0.5939486 0.3572448 -0.4442363 -0.17329685 0.067758985 -0.14445564 0.16814502 -0.20881248 0.2639621 0.21757947 0.49285734 0.12184555 -0.44293183 -0.01805514 0.24247709 0.1998429 -0.6364069 -0.7195395 0.1779922 0.25085986 -0.03686969 -0.19514112 -0.1013107 0.10275968 -0.32668856 -0.5586421 -0.12119955 -0.09801057 0.05528922 -0.53334665 -0.0139477495 0.16792409 0.12064433 -0.08879503 0.68538445 -0.24563043 0.56272495 -0.23447227 0.07751372 0.1856875 -0.23216358 -0.24638234 0.14842094 -0.4981782 0.2940996 -0.30947676 0.27814412 0.13344385 0.23800246 -0.075760834 -0.15102533 0.22164457 0.2502655 -0.124695934 -0.24838108 0.4336996 -0.66391426 0.06697102 -0.036036037 -0.31461117 0.0026644436 -0.5128558 0.46757826 -0.3813041 -0.0066395057 0.038253825 0.30358225 0.774755 0.17365454 -0.089888215 0.5587639 -0.1316614 0.17125838 -0.48654312 0.41628212 0.38531813 -0.4773432 0.6262774 -0.020900242
por -0.7583359 0.15198496 0.15561718 -0.21926036 0.09422908 0.11896598 0.44392487 0.43698066 -0.17788939 -0.14877644 -0.013627673 -0.21190093 0.8692805 -0.0071473164 0.6257863 0.298012 -0.0007487694 -0.70054644 0.06299173 0.26879978 0.33512938 0.1456399 0.8126596 -0.037105825 0.6266065 -0.097799346 -0.06975259 -0.27454677 0.51227176 -0.64150584 0.68769985 -0.28609824 -0.40591505 0.19510789 -0.037840743 0.10500206 -0.0330265 0.0051543047 -0.6674383 -0.13745102 -0.2508454 -0.32983607 0.13515913 -0.19679652 -0.38408905 -0.30995408 -0.03751897 0.5773495 -0.13384256 0.062152706 0.29006886 -0.11533178 -0.2518789 -0.19168225 0.014216289 -0.49374756 0.5690419 0.20745899 0.23012371 -0.5132526 -0.287286 -0.0259621 0.7999398 0.18932043 -0.8010103 0.3611774 -0.12908143 -0.31405863 -0.1182237 0.33241463 -0.41279373 0.17343329 0.14476086 0.14884338 -0.0938764 -0.7629018 -0.12696555 -0.35229236 0.08769252 0.17627937 -0.2841397 -0.05142958 -0.28451735 -0.06533672 0.25728244 0.087502666 0.07120416 0.13062106 -0.2316458 0.19423565 -0.06280982 0.09236271 0.24041964 0.10349256 0.3041425 0.5489537 0.28255707 0.032296512 0.18331204 -0.14092238
y -0.06630834 0.04816532 0.012899648 -0.1345406 0.22947223 0.25173768 0.3951227 0.117271855 -0.18558517 0.24332584 -0.20215896 -0.2605542 0.44406873 -0.42418987 -0.018179862 -0.06307169 0.24710317 -0.30685028 0.07370085 -0.11029739 0.28905964 -0.19739537 0.072116815 -0.0026293837 -0.45072848 0.008093266 -0.01869555 -0.089443445 -0.6258876 -0.13645098 0.27759558 0.03172338 -0.17231442 0.06937914 0.043010328 0.4132998 -0.09075181 -0.27586707 -0.22209899 -0.3883482 0.58436227 -0.09844386 -0.235127 -0.23109882 -0.22771361 -0.008522142 -0.32124895 -0.21118106 0.03994072 0.29961044 0.033880997 0.1619693 0.09836553 0.44226855 -0.75158334 -0.016501183 0.33973077 0.52206737 -0.06867826 -0.055953857 0.15311669 0.21473545 0.1400162 0.18534186 0.15783215 -0.08115322 -0.024110962 -0.35101375 0.2792845 0.24650024 0.3745244 0.37413606 -0.03645249 -0.5253552 -0.1941777 -0.50477374 0.28424004 -0.07405737 0.0657512 0.29857862 0.08762227 0.06567792 0.0028906215 -0.15454984 -0.16937932 -0.30341387 -0.029741665 -0.03082857 0.030504236 0.05482349 -0.08744208 0.32663715 0.09519474 -0.045904707 0.24931006 0.292889 0.1813801 -0.40466878 0.402178 0.196954
un 0.39013094 -0.5289938 -0.2613275 -0.7725366 0.10073678 0.10163235 -0.22611366 0.4850694 -0.09328438 -0.18976012 -0.29710746 0.013841183 -0.0027106113 -0.20985582 0.09773217 0.5193184 0.31500167 -0.27009916 0.72266364 0.071000054 0.25220314 -0.025719522 0.9729422 -0.4503234 0.13570495 -0.0764589 0.13941897 -0.3077697 0.2960811 0.040592477 0.3424423 0.15116608 0.26280114 0.26754057 0.15054923 0.0677235 -0.2769867 -0.014768703 -0.35517758 0.35831815 0.11486707 -0.41028938 -0.216396 0.31521875 -0.29708567 0.18625231 -0.44163984 -0.177707 -0.45105413 -0.020331314 0.0007871514 0.078852475 -0.35016015 0.18617019 0.2819865 0.24449798 -0.09028421 -0.014539467 -0.01345543 0.09831461 0.15106653 0.06604131 0.039594535 0.07064399 -0.54015124 0.35352382 -0.20419008 -0.5724824 -0.053327277 -0.19658555 -0.18875636 0.03256727 0.05294252 -0.042669654 0.25762254 -0.09670836 0.27091008 -0.91389585 0.61029774 0.36472663 0.062435593 0.36452124 -0.2524682 -0.07184767 -0.25499356 0.13612065 0.17104183 0.44070223 0.11655518 -0.022719814 -0.22208837 0.20671257 -0.37456802 0.011302379 -0.6102512 0.1965705 0.53410065 -0.042645935 -0.067118175 -0.24617188
número 0.08939103 0.8841756 0.27812687 -0.16896774 0.23557065 -0.031135783 0.45967928 1.405058 -0.50405824 -0.4222169 0.03134842 -0.11747698 0.44397452 0.2499743 0.7245523 0.029907037 -0.014973774 -0.45797154 0.40686765 -0.42857918 0.22476642 -0.18502975 0.2541733 -0.058142494 -0.40170106 0.16631106 -0.922028 -0.27188787 0.4157088 -0.13287492 -0.33300725 -0.08866803 -0.71722347 -0.11384826 0.2727293 0.19250973 0.1970798 0.28188187 -1.0394633 -0.1791142 -0.73753756 -0.97190034 0.32470015 0.4819624 -0.10814422 0.048602443 -0.11354462 0.33466348 -0.20698601 0.34524155 0.42923594 0.0056092823 -0.62884325 0.18212238 -0.7527303 0.018625604 0.37372026 0.9007307 0.06893565 -0.7518223 0.4196165 0.1697221 0.28721982 0.7415407 -0.37659484 0.81735 0.30036184 0.09322477 -0.60078615 0.64311147 -0.034036376 0.48439518 -0.32786638 -0.39689183 -0.098551355 -0.14596346 -0.4677851 -0.1271612 0.62304384 0.36757946 -0.4629161 0.5933785 -0.5890348 -0.4473708 0.6635067 -0.13220571 -0.03914519 -0.039653283 0.579042 0.37198105 0.14500882 -0.1457313 -0.20229392 0.65877604 0.4517745 0.23976526 0.2824233 -0.34706798 -0.8607286 0.44940388
pofi -0.1149367 0.49565813 0.110797904 -0.48587692 0.0105386935 -0.060285565 0.16408552 0.84709156 0.15018842 -0.39575332 0.02371484 -0.3554766 0.28080586 0.2003551 0.17181459 0.0014274216 0.2731973 -0.08371374 0.30005494 -0.20724966 0.22245835 0.36795816 0.24338813 0.28481844 0.017738275 0.34113353 -0.20782791 -0.47438976 -0.04537632 0.27590755 0.13662969 0.25413907 -0.20650274 -0.47831252 0.30872148 0.12753965 0.015500843 -0.092974685 -0.67397285 0.24262425 -0.4219521 -0.048751164 -0.030144135 0.2242492 -0.34211907 -0.12805298 -0.36659497 -0.033409737 -0.38009125 0.1176717 0.317314 0.10960583 -0.22545755 0.021868095 0.08680063 0.17742719 -0.034693606 0.34279987 0.086421505 -0.08335857 0.0129301315 0.09708376 -0.06813541 0.4295873 -0.46120894 0.26574 0.22861895 -0.34951597 -0.3841187 0.25213906 0.19323507 -0.30170575 -0.29327005 -0.39429402 0.060525097 -0.23646942 -0.016262654 -0.6620811 0.24504665 0.4275948 -0.41207105 0.09884684 -0.050148547 -0.030365974 0.15170008 0.22944094 0.31246725 0.14487758 0.21190552 0.17825644 0.13364077 -0.07194703 0.47230557 -0.2617976 -0.19725133 0.10625877 0.3857845 -0.4125245 -0.041310243 0.21313114
no 0.050540347 0.51689154 -0.24534516 -0.10464387 -0.12229213 -0.12383915 0.01917012 -0.016067293 -0.3201477 -0.15332797 -0.27786532 -0.2204798 0.287989 -0.31434825 0.29435906 -0.05337031 0.34215936 -0.44412985 0.3021412 -0.27306488 0.53190243 0.050429128 0.82768756 0.49348155 -0.1428621 -0.18869008 -0.2207293 -0.10566707 -0.2698326 -0.052428752 0.53322864 0.14452541 -0.07519958 -0.348563 0.10727492 -0.043021217 -0.14228073 -0.1049823 -0.5642913 -0.6005794 0.20485327 -0.32245648 -0.1050709 0.067653015 -0.092020825 -0.26141423 -0.52710253 -0.32477862 -0.2295913 0.2138049 0.051119268 0.50040776 -0.031031197 0.25414264 -0.5547555 0.33744633 0.25460714 0.4411727 -0.21477889 -0.19216628 -0.0103661325 0.37944952 -0.056100152 0.259969 -0.22890067 0.016385337 0.24882217 -0.19085577 0.059906118 0.20649086 -0.2151256 -0.0376464 0.10749774 -0.28481475 0.43012953 -0.21676564 0.3327986 -0.17498793 0.006934926 -0.00094882445 -0.095851794 0.016139138 0.13132243 0.3532509 -0.4985486 0.25128955 0.05213672 0.18415223 -0.30405748 -0.14684026 -0.07754428 0.027231297 0.13537754 0.00036246117 -0.20006095 0.27201286 0.4332519 -0.34499237 -0.22251466 0.44471544
buscando 0.23996627 -0.2014161 0.5052438 -0.854359 0.27634773 -0.13720492 0.23119572 0.4996955 -0.16215613 -0.24534048 -0.08937313 -0.28292182 0.16374323 0.062707916 -0.06308136 0.5209548 -0.014312096 -0.19098416 0.46219474 -0.027295223 0.18111362 0.14379412 0.48889175 -0.5878309 -0.11697482 -0.34534535 0.1374257 0.37673646 0.04247252 -0.17433782 0.3209903 -0.34345406 0.29466644 -0.48173776 -0.2508521 0.5809056 0.09874605 0.14433841 -0.12520084 -0.27858126 0.21927047 -0.25669473 -0.118583426 0.10428058 0.5123617 0.022467054 -0.04447001 0.15287681 -0.42691016 0.038581923 -0.2473969 0.44539562 -0.023374515 -0.36305752 -0.47827816 -0.3910779 0.68967295 0.39635995 0.035987653 0.3165064 -0.015570663 -0.13061962 -0.043300193 0.2711039 0.12767673 0.5937341 0.20763126 0.017504908 0.44066468 0.58785766 -0.14692593 0.06737473 -0.054362707 -0.039642178 0.28716597 -0.74292296 0.8141545 -0.5024309 0.292119 -0.06144952 -0.5621944 -0.2279166 -0.26498735 -0.42155254 0.050485726 -0.5158697 0.40967962 -0.3603179 0.15722273 0.3627042 0.03653634 -0.049093544 0.23145333 -0.28674552 0.30243728 0.04755326 0.0012467954 -0.13191876 0.38903385 0.3139291
las -0.13396378 -0.025185656 0.5326573 -0.3884013 -0.04403328 -0.3155215 -0.22650315 0.12130014 -0.13933188 0.03836613 -0.056131143 -0.48266095 0.41234243 -0.103017285 -0.06297842 0.1775958 -0.070981644 -0.29334766 0.39623517 0.13692033 0.3432127 0.050738905 0.33923212 -0.38869247 -0.5690096 -0.06298199 -0.41997474 0.49450988 -0.22765821 -0.54195 0.38215852 0.40930212 0.08800073 0.10078014 -0.0818417 0.6561331 0.5273826 -0.57711613 -0.83748037 0.14134553 0.1053043 0.20788223 -0.2642556 -0.30223104 0.27915797 -0.042014778 -0.45053473 -0.057181746 -0.36148843 0.072586566 -0.21197101 -0.1873055 0.10606742 0.6122779 -0.5561164 0.33970714 0.2588093 0.4998863 0.17147382 0.18471599 0.33052993 -0.086792275 -0.15657514 0.00086502533 -0.16646132 0.25732765 -0.12264294 0.3265816 0.35235676 0.61108637 -0.5120314 0.28219628 0.26794127 -0.050961647 0.1909244 0.049410496 0.15743318 -0.50476635 -0.32705572 -0.2241297 -0.27863848 -0.1196457 -0.63107055 0.55681986 -0.59054154 0.0043529994 -0.009561602 -0.22438614 0.5332976 0.45361805 -0.03343019 0.45682594 -0.5019801 -0.21943495 0.04598838 0.32930785 0.14853257 0.14477198 0.32885638 0.27152708
tu -0.45241126 -0.5314075 0.2777826 -0.4791627 -0.015330471 0.264218 0.047415398 0.047342505 0.2584285 0.11980929 -0.03514343 -0.03997027 0.20573844 0.08975919 -0.2151665 0.17024109 0.314156 -0.15783586 0.36084637 0.1294014 0.5670025 0.16225848 0.62410325 -0.27225506 0.099762246 0.11950034 0.4665889 -0.28951362 -0.019587798 -0.18878911 0.1624765 0.18393986 -0.46084338 0.23060137 -0.08872348 0.1878403 0.11623045 -0.43072072 -0.5757269 -0.48107222 0.2384446 -0.6529545 -0.28902814 -0.2984129 -0.025075028 -0.06674926 -0.096730486 -0.25413755 0.11701964 -0.17042375 0.165877 -0.27823043 -0.25545526 0.20737822 -0.22950001 0.44644648 0.1865467 -0.07184066 -0.42083347 -0.13996173 0.29860714 -0.104196854 0.6183543 0.2370035 -0.13342156 0.05479135 -0.60845155 -0.30495545 0.2631661 0.49655563 -0.032766286 0.07659579 -0.20000209 -0.078059435 -0.016116496 -0.6527156 0.20972036 -0.28313535 0.34485736 0.27383456 0.26271468 -0.18447469 -0.14600457 -0.43834302 -0.050079286 -0.43646953 -0.21784176 0.15373032 -0.056735866 0.29302734 0.20136286 0.18995239 -0.252322 0.036023572 -0.27767935 0.4892106 0.061886746 -0.10677894 -0.045794666 0.20960589
estoy 0.05439943 0.3317715 -0.030088698 0.17975666 -0.034334607 0.15731566 0.7898897 0.22465469 -0.5233786 -0.29980803 -0.24022593 -0.15693542 0.58172387 -0.37496805 0.1471639 -0.38030383 -0.027750857 -0.5091056 1.0003178 -0.23801646 0.5070426 0.12067259 0.15124491 0.10054026 -0.026178168 -0.121224366 -0.40251836 -0.1559058 0.3392187 0.058744594 -0.0982712 -0.18238378 -0.48250216 -0.3369905 0.24819311 0.63258976 -0.5127777 0.004971679 0.08118633 -0.4785964 0.61758256 -0.6992809 0.12134165 0.1015377 -0.48063314 -0.33102864 -0.09804912 -0.58490705 -0.089894556 0.20043643 0.32660344 -0.07093139 -0.5542561 0.16601585 -0.00492469 0.14383385 0.67135817 0.8385397 -0.101887144 -0.60372627 -0.15943497 0.32249898 0.1652773 0.07144693 -0.09253498 0.10960202 0.15595248 -0.247543 -0.18577494 -0.33974463 0.18750905 0.2786551 0.001633708 -0.029366925 0.27976277 -0.27778453 0.18036307 -0.35723603 0.27858973 0.46827045 -0.53507406 0.118984856 -0.4192875 -0.024209 0.22541638 -0.65074104 0.08616708 0.07655367 -0.2480737 -0.1884135 -0.12109672 0.00091269834 0.079267554 0.3189398 0.31161556 0.4572357 0.6932487 -0.11170223 -0.22232856 0.3519316
me -0.17121537 -0.092963874 -0.18725389 -0.2061542 0.2023532 0.011242436 0.15563042 -0.17858718 -0.4494763 -0.039709482 -0.10544013 -0.5114891 0.57102126 0.18043138 0.31148353 -0.043450702 0.47895893 -0.012681228 0.23296638 0.26950383 0.66916084 -0.3991127 0.54383874 -0.26311803 0.2892933 -0.21665815 -0.19813251 0.002498335 0.44385195 -0.41126767 0.31184268 0.4768254 -0.60944164 0.329149 0.0022137822 -0.05433397 0.006765755 -0.3719689 -0.16046831 -0.6191189 0.02146222 -0.42712483 0.35210612 0.00970241 -0.5568804 0.15016015 -0.36896914 -0.15918623 0.5029229 -0.10058812 0.46488297 -0.20536911 -0.060717415 0.4197357 -0.34686175 0.66407263 0.13422807 0.6632697 -0.21036154 -0.34234363 0.00030105936 0.519788 0.5893978 0.58225596 -0.37352803 -0.06620791 -0.042991128 -0.24932693 -0.062717505 0.13258103 -0.05393182 -0.4983245 0.0010457316 -0.27418262 0.1259408 -0.3090514 0.12373549 0.26329994 0.13591261 0.25653216 -0.01150836 0.06953282 0.07116995 0.39203823 -0.05056328 0.13891155 -0.1449098 0.48035938 -0.16937286 -0.13893013 -0.23134546 0.01869427 0.074321054 0.21737719 0.040175978 0.37330326 0.43897465 -0.21496756 0.39936316 0.051283862
es -0.011089662 -0.13811547 -0.081904836 -0.33521882 -0.01435899 0.0532808 0.38184124 0.1812269 -0.49989733 0.099412814 -0.47050518 -0.18395846 0.45600265 0.18256386 -0.18623717 -0.15263332 0.61682403 -0.25144175 -0.23964489 -0.16580959 0.111286685 -0.36045176 0.13876872 -0.31403697 -0.0688687 -0.12045899 -0.099017635 -0.035871506 0.14073682 -0.0102402 0.25506523 0.35477406 0.18354745 0.08142583 -0.046337955 0.34978023 -0.1466137 -0.35776055 -0.2753397 -0.25751492 0.028308854 0.100863546 -0.08941393 0.19314882 -0.29573292 0.09887499 -0.37264293 0.026218504 -0.095758036 0.27569634 0.0461404 -0.038394254 -0.033941 0.17629518 -0.2026075 0.21565185 0.065749645 0.40478677 -0.043201257 0.28502688 0.27854472 -0.2744967 0.10138021 0.072938204 0.092058055 0.092432074 -0.06655983 -0.45587045 0.16637518 0.39273557 -0.23169962 -0.03322566 -0.111141644 -0.9376586 -0.035865672 -0.21898296 0.59943414 0.11868964 0.27019012 0.49219942 -0.47010398 -0.12035398 -0.13052206 -0.26162872 0.09733606 -0.10615058 0.21492754 0.057741165 0.0010623578 0.013985812 -0.11421213 0.24796586 0.040974475 -0.14560367 -0.13902867 0.14707781 0.09639971 -0.18231656 0.79339147 0.35950798
los 0.1884661 0.09200338 0.22876638 -0.35166547 0.25142547 -0.01789421 0.21204506 0.47151026 0.377648 -0.35570708 0.16158995 -0.38091463 0.7699688 0.18323335 0.30381706 0.095735416 0.29684514 -0.2166023 -0.033123717 -0.036151763 0.5733186 -0.30022156 0.068475686 -0.025446063 -0.20002866 -0.13144484 0.32789403 -0.22456512 -0.8616288 -0.19023389 0.22843893 -0.038090333 -0.09020279 -0.5108272 -0.103648804 0.5617943 0.064477816 0.15282625 -0.4299936 -0.3153089 0.04267837 0.022716656 -0.11205303 -0.013192051 0.36801973 -0.39422014 -0.50209117 0.33070266 -0.16332619 0.24939172 -0.036523104 -0.055776123 -0.06867533 -0.07088281 -0.62791723 0.039326135 0.27420035 0.49159262 -0.365469 -0.46047688 0.035816874 0.117504925 0.2820974 0.2965069 -0.23796585 0.8060473 -0.34247285 0.09548246 0.64886004 0.4054464 0.33885244 0.22149727 -0.22673288 0.04607133 0.6296386 -0.2498728 0.08660906 -0.26828495 -0.3032775 -0.11311391 -0.2526653 -0.120823815 -0.13188861 -0.06937755 -0.31868786 0.3655407 0.4426451 -0.06674202 0.09823275 0.4510696 0.014935912 0.19871026 0.25392115 0.015101251 0.1419175 0.40629822 0.07406382 -0.5594034 0.22129655 -0.25865293
del -0.03438195 0.32946026 0.5280297 -0.41779572 -0.18455791 -0.020155242 0.37102535 0.49546692 0.19909644 -0.10478509 0.25135434 -0.3535587 0.6414339 0.2534049 -0.038057473 0.14745216 0.22273295 -0.042329077 -0.11054326 0.20560542 0.2549528 0.047739256 -0.009027081 -0.19327432 0.09121627 0.15600844 0.22048324 -0.36892238 -0.2006531 -0.097346485 0.34391016 0.02584489 0.09831859 -0.49878895 0.19497329 0.58579594 0.17670621 -0.055610787 -0.11590008 -0.36689106 -0.4532804 0.021417685 -0.10290543 -0.25699604 -0.053583123 -0.044804554 -0.23228006 0.5023779 -0.16076265 0.08255479 0.08848966 0.4590134 -0.4919197 0.10074256 -0.17064008 0.06852831 0.42565498 0.36765954 -0.047168687 -0.05792319 -0.14639544 0.41522256 -0.1571297 0.48674923 -0.024262594 0.31311136 -0.0033351022 -0.09772368 0.24457972 0.64319605 0.37973037 -0.18760447 -0.09376711 -0.5115141 0.308055 -0.5436426 0.30350903 -0.78365153 0.32546353 0.41713926 -0.0672993 -0.27831775 0.25400743 -0.19931734 -0.0020867875 -0.10700687 0.2705179 -0.18121596 0.060198303 0.6970132 0.24581449 0.03921013 0.5011585 -0.40455604 -0.2150794 0.20014316 -0.021371793 -0.3842744 0.32341248 0.34029418
este 0.024888998 0.93430936 -0.10503809 -0.20805164 0.28489795 -0.12892404 0.5479581 1.0583992 -0.05042526 -0.4677753 -0.23199974 -0.17316493 0.32690033 0.5803967 0.49584207 0.42115197 0.023806913 0.08062111 0.42614564 -0.16580063 0.59447324 0.16690011 0.08207085 0.17926149 0.21139733 0.31895444 -0.35993114 -0.8165332 -0.03202728 -0.45073846 -0.026228778 0.20348038 -0.61276776 -0.31298268 0.5461817 0.41233438 0.42071047 0.1436071 -0.9157258 0.07484963 -0.18757373 -0.47812438 0.073687725 -0.16561322 -0.22274452 0.06301511 -0.32394373 0.21816541 -0.057033848 0.038301304 0.3647348 -0.022683643 -0.8387042 0.29955274 0.0925893 0.5638104 0.10991632 0.55609566 -0.32329056 -0.65849996 -0.03452456 0.13625842 0.25031152 0.64107996 0.044946164 0.7409868 -0.14391688 -0.28065184 -0.48524633 0.33918932 -0.13791381 -0.2303977 -0.27139524 -0.41711304 -0.21122612 -0.04751848 -0.5040098 -0.6593494 0.2897113 0.30326027 -0.62083256 0.32370698 -0.37686828 -0.3086167 0.18277805 0.16221654 0.5526816 0.13157952 0.4427039 0.092289545 -0.008192856 -0.07905693 0.16937494 0.22695151 -0.27175078 -0.03907659 0.49412516 -0.29936397 -0.17026979 0.24423732
abriendo 0.3307298 -0.5583157 0.28206515 -0.425867 -0.062253773 0.3371323 0.11990558 0.20424092 -0.12146171 0.10581929 -0.42046922 -0.2482081 0.43251532 -0.14316784 0.31580818 0.36648035 0.005318549 -0.38884553 0.77061033 0.34296456 0.28357863 0.16602066 0.26194358 -0.87619126 -0.2663943 -0.06153097 0.10929177 0.21943665 0.47841793 -0.087807365 -0.20648253 -0.23219185 -0.22847788 -0.2562977 0.058780868 0.6640734 -0.3103279 0.30933002 0.024743518 0.1067233 0.28615043 -0.3420396 0.21031584 -0.05412008 -0.15017995 -0.07077753 0.0037236481 0.23780091 -0.30964798 0.053915404 0.42522195 -0.24579656 -0.6914246 0.48511833 -0.11874001 0.06763029 0.81165886 0.41085067 0.06538334 -0.45506772 0.21330164 -0.09135015 0.18097591 -0.043278653 -0.005440853 0.7090487 -0.22418414 -0.5927772 0.25898644 -0.10878343 -0.3344196 0.5027684 -0.14174649 -0.2823745 0.68160725 -0.39893353 0.30174384 -0.49067387 0.3677311 0.52707577 -0.4039988 -0.17125238 -0.40476477 -0.02742757 0.024221297 -0.39312938 -0.115350194 0.58244467 -0.15153803 0.46109188 -0.39662254 -0.039291438 -0.84538794 0.32035157 -0.02298937 0.2089882 -0.09100204 0.34296408 -0.25192067 0.3586316
necesito 0.071315765 -0.06584584 0.31782097 -0.7723658 -0.21049581 -0.19161382 0.0033753274 0.8112671 0.08069529 -0.81125665 -0.10335729 -0.17277671 0.043889016 0.13656124 0.2338018 0.23927756 0.4064081 -0.16493113 0.30305183 -0.033908486 0.266328 -0.22725154 -0.023092473 -0.37030792 0.09095287 -0.33037794 0.32031915 -0.38763833 0.21210678 -0.045405023 0.14650607 0.44223118 -0.16247658 -0.045602318 0.16369003 0.47741088 0.314547 -0.18673241 -0.1942265 0.3811427 -0.16362536 -0.14635013 0.33565152 0.075904876 0.39557028 0.16070163 0.026771227 0.4204441 -0.086531006 -0.0758669 0.3973928 0.3887316 -0.17660251 0.37889287 0.17249967 0.30343482 0.23502883 0.47482204 -0.38503286 -0.13269192 -0.0034915647 0.28813997 0.04788126 0.18638921 -0.30049488 0.5480064 -0.40860426 -0.34352458 0.14474429 0.1654693 -0.22843567 -0.3967257 -0.185685 -0.24987455 0.5370239 -0.16128017 0.11078163 -0.14280735 0.33461264 0.31145442 -0.00017501859 -0.25548878 -0.17106596 -0.022178382 0.1713895 0.24109076 0.338026 0.54936993 0.49960673 0.29637885 -0.17854296 -0.05569011 -0.13869537 0.0439874 0.02440924 0.00027251695 -0.21257493 -0.25254196 0.18228601 -0.3166615
favor -0.43610406 0.1348438 0.043275073 -0.7025107 0.21131516 0.093196765 0.48640826 1.2563627 -0.05397408 -0.34394574 -0.2959877 0.3134728 -0.07311516 -0.012045381 -0.12850857 0.29221168 0.37111777 -0.46309835 0.48909098 -0.10001286 0.28912345 0.1278046 0.24362373 -0.22614472 0.37972727 -0.019616624 -0.46360227 -0.40160513 0.22412468 -0.13312878 -0.041482992 0.10728923 -0.6007517 -0.098432526 0.482732 0.30667102 0.38436797 -0.05437982 -0.7262854 0.07696083 -0.08866805 -0.60670316 0.122849405 0.01790527 -0.028233536 0.058120575 -0.111620575 0.33333233 -0.13926421 -0.08182437 0.03863322 -0.36330423 -0.82253486 0.3865229 -0.19099079 -0.081406154 0.40560994 0.16099793 0.0014781924 -0.30340272 0.5453945 0.012954303 0.44961697 0.18453166 -0.27741498 0.772317 0.35457855 -0.45587435 -0.22068961 0.35608503 -0.034450006 -0.012301488 -0.26391888 -0.3781201 -0.09721012 -0.38381106 -0.47931856 -0.44682866 0.4836204 0.39596567 -0.32732382 0.50804734 -0.46751297 -0.26902875 0.17442158 -0.07390368 0.3833887 0.35336238 0.0885216 -0.108202934 -0.12008482 0.09261443 0.27327225 0.21101736 0.24843232 0.057741757 0.2729076 -0.18818645 -0.112380944 -0.06235933
te -0.3843356 0.19325173 0.13634054 -0.20319493 0.04852142 -0.058017474 0.21349663 0.15655586 -0.2675922 -0.09808007 -0.06535462 -0.03297415 0.42099342 0.21079451 0.37352508 -0.009533301 0.37203705 -0.07024493 0.111893855 -0.07923238 0.4321705 -0.010512996 0.37808186 -0.17907268 0.029643439 -0.136994 -0.25355697 -0.29977843 0.3052799 0.05352941 -0.03044246 0.5345151 -0.21327983 0.1853908 0.120378956 0.28839543 -0.019492378 -0.46425757 -0.3888954 -0.32465377 0.03356849 -0.30380833 0.06775019 -0.1866174 -0.27360296 -0.035558596 -0.16668098 -0.23816931 0.15766522 -0.04377942 0.75949866 0.12114209 -0.20954613 0.40554845 -0.15806563 0.50629735 0.05607977 0.51515114 -0.17882831 -0.4016706 0.0007640235 0.11238068 0.2596465 0.34754395 -0.23861933 -0.04102143 -0.12365325 -0.704223 -0.26612616 0.3017405 -0.1259895 -0.5321395 -0.40311918 -0.48044348 -0.009064968 -0.4157583 0.19220868 -0.18813623 0.12295035 0.6649595 0.17980467 0.23612905 0.06880903 0.24088387 0.114851534 0.20055714 -0.16374019 0.31959227 0.11433996 0.16238514 0.22487575 -0.19689289 -0.25286293 -0.16787995 -0.24443074 -0.08285504 0.24076484 -0.33019084 0.1416418 0.18595256
mi -0.103019975 -0.16148207 -0.1942717 -0.44121152 0.4755555 0.15808405 0.1547429 0.08529556 0.064742446 0.16560455 -0.060909368 -0.39900303 0.2474578 0.07919348 -0.00949058 0.37331274 0.36917228 -0.041261557 0.3847394 0.066279665 0.31900877 0.22929808 0.5502874 -0.17065771 0.21880932 -0.10696381 -0.140893 -0.3148907 -0.1102786 -0.38230225 0.32580468 0.42042235 -0.20419723 0.23959756 -0.12790248 -0.18477826 -0.22058256 0.004668698 -0.21534786 -0.2540028 0.17288567 -0.44535762 -0.40965268 -0.020915495 -0.48412716 0.39414972 -0.5223609 -0.13912685 0.045474797 0.1990514 0.29763067 -0.09878697 0.24490951 0.23792778 0.009266649 0.53259087 0.12052479 0.22567467 -0.115514934 0.06560215 0.101227045 0.021749549 0.37425524 0.15947951 -0.31291002 0.018165398 -0.09241416 -0.29794595 -0.001932893 0.17948517 -0.028722975 -0.11233039 -0.24812374 -0.38983494 -0.20011957 -0.45733345 0.14162737 -0.392111 0.2686668 0.12938185 -0.14916123 -0.2027054 0.0510736 -0.21819349 -0.04373236 0.017721709 0.18046881 0.06727504 0.17111483 0.015371691 0.10550941 0.16393496 -0.062225796 -0.09924604 -0.26678982 0.4190171 0.56883293 0.08609775 -0.07410051 0.12560742
alarma 0.24053688 -0.42521113 0.35082835 -0.73043317 -0.18469276 -0.19544527 0.20168403 -0.09873371 0.13824555 0.11118763 -0.18543904 -0.42923093 0.61046654 -0.084956914 -0.30553842 0.47058094 0.36432406 -0.48339245 0.16367938 0.18081631 0.70440954 0.23756701 0.4913596 -0.27597976 -0.18079473 -0.085063614 -0.27341357 0.22685796 -0.4245495 -0.26780573 0.5591649 0.5713357 0.28582716 -0.19908841 -0.23892206 0.39854994 0.5729686 -0.6684371 -1.0166342 0.085183196 -0.08046987 0.43024713 0.0210318 -0.7981665 0.28363407 -0.11097379 -0.43437323 0.20389739 -0.53658485 0.4582533 -0.4106203 -0.42110986 -0.31947276 0.48079363 -0.64242357 0.13562116 -0.08648147 0.5170025 -0.17875323 -0.18033786 0.20091787 -0.4697432 -0.12114573 -0.060840927 -0.56641847 0.6259326 -0.3523406 0.27880725 0.39475462 0.7308226 -0.28044757 0.1748541 0.40985364 0.34084162 0.07652921 -0.45679504 0.11271265 -0.553416 -0.54524803 0.23713385 -0.31509864 -0.26815122 -0.9205549 0.65720665 -0.8356586 -0.0656659 0.2889117 -0.17630197 0.4755536 0.30803216 -0.07504803 0.64839256 -0.76575565 -0.05667233 -0.20651808 0.2778277 0.24265613 -0.23993501 0.48632646 0.19323109
valor -0.2954784 0.32151586 0.03598957 -0.23085484 0.5800876 0.27693245 0.8233713 1.1565492 -0.7859361 -0.15241118 -0.3662989 -0.06845119 0.4202851 -0.11912799 0.3547734 -0.26308686 0.10008349 -0.8082436 0.27711943 -0.41422272 0.14343184 -0.009617869 0.06240893 0.24955614 0.30661133 0.17934172 -0.9370974 0.12784445 0.47789887 -0.057264354 -0.40566435 -0.24313384 -0.55090094 -0.18642254 0.32429853 -0.033550873 0.29204917 0.25553694 -0.45812732 -0.07473129 -0.43044236 -0.68792534 0.3175884 0.4204362 -0.29276052 -0.32470506 -0.3517036 0.4319978 -0.33034927 0.23553778 0.15860166 -0.18981288 -0.7478054 0.040886957 -0.5899689 -0.4371886 0.9169406 0.9077804 0.5471123 -0.64466804 0.29212448 -0.022100927 0.4969122 0.27885288 -0.72172034 0.5198808 0.58117926 -0.1421261 -0.5875314 0.25275958 0.12390525 0.909767 -0.02665022 -0.22220823 -0.44268876 -0.6535397 0.0054647345 -0.05076994 0.2161259 0.35071403 -0.7863718 0.5924442 -0.8453324 -0.15253538 0.29286674 -0.23455402 -0.088215664 0.20712586 0.08736924 -0.061083112 -0.22433424 0.20654598 0.26037335 0.8432676 0.7254026 0.7742695 0.78440505 -0.27433565 -0.49081805 0.40077385
quiero 0.16894941 -0.3731207 -0.14001974 -0.64443284 -0.0011811979 0.03662487 0.2652454 0.45969918 -0.019738974 -0.2137132 -0.1504159 -0.5107377 0.12804769 -0.07855338 -0.07353311 0.19917007 0.3503133 -0.059923775 0.272018 0.13481669 0.30977917 -0.07924807 -0.005487452 -0.43784106 0.19906269 -0.44305378 0.090745 -0.32549575 -0.007597694 -0.34121954 0.0673875 0.4691109 0.2019404 0.19599187 0.17638673 0.07717027 0.29082778 -0.19667497 -0.3309006 0.6071495 -0.17271274 -0.07971748 0.20832363 0.18595348 -0.21225695 0.40372956 -0.22135937 0.23778647 -0.026498422 0.15115829 0.33784726 0.047616072 0.13620181 0.43418857 0.19488513 0.5069166 0.17092752 0.525189 -0.2516336 0.34086373 0.3609653 0.025263883 0.1002331 0.021435602 -0.26149395 0.35591844 -0.28302032 -0.22346182 0.1180686 -0.10598757 -0.16743001 -0.43706322 -0.014826849 -0.66215533 0.40830338 -0.16239026 0.31376943 -0.031840395 0.17401394 0.31591564 -0.25052202 -0.20992288 -0.25028613 0.038740717 -0.06756699 0.38644832 0.32501528 0.27068233 0.647946 0.29217544 -0.18582231 0.24028893 -0.105293624 -0.062733464 0.031680625 0.21119557 0.061598085 -0.23366351 0.39266986 -0.18723643
mensaje -0.8353615 -0.2760265 0.2100811 -0.24451816 -0.27666974 -0.07839977 -0.009316169 0.022111623 0.33362386 0.17082596 0.26734066 0.0191226 0.7714319 -0.24379872 0.0765483 -0.20785195 0.34527236 -0.42608708 0.28879097 0.14102875 0.50602335 0.216572 0.5780385 -0.23564465 0.35404086 -0.027841792 -0.21821061 0.120073855 0.3546577 -0.19823056 0.08870539 0.5825722 -0.22486342 0.56777936 0.30842376 0.28260872 0.12653217 -0.9970195 -0.78831655 -0.6332656 -0.16036586 -0.6452786 0.51573837 -0.4751285 -0.3479384 -0.083671965 -0.32872677 -0.048817556 -0.13591106 -0.23533422 0.64834666 0.10914805 -0.19986306 0.09397982 -0.36175779 0.39898998 0.26172626 0.78652966 0.14945953 0.16582762 0.5080739 0.19936943 0.53190356 0.24252652 -0.057411484 -0.037983716 0.09895174 -0.47893676 0.09224999 0.59408635 -0.22507814 -0.35907888 -0.15276684 -0.18696454 -0.046895035 -0.119576305 0.040901657 -0.30266437 0.05500187 1.0038624 0.16217153 0.48948115 -0.051753446 0.30216226 -0.084532745 0.082277395 -0.25644007 0.31010303 0.15421697 0.18584888 0.45133138 0.37442404 -0.4101963 -0.05955237 0.4574841 0.08629308 0.086952634 0.07428457 -0.15714803 0.012550402
puedo 0.117935084 -0.26159957 -0.28701296 -0.32529837 0.005106476 -0.035294726 0.037346203 0.60393775 -0.49029425 -0.5032797 -0.1848586 -0.18157764 0.09184522 0.07124873 -0.09571031 -0.02351406 0.4233998 -0.31463015 0.6449983 -0.39394563 0.20752768 -0.22587094 0.21780455 0.01774248 0.34044832 -0.45349073 -0.10066389 0.15560792 0.3892492 0.35855824 0.23288286 -0.09371916 0.3123374 -0.3677115 -0.25569573 0.11109064 -0.080593966 -0.7138492 -0.05399338 -0.25320643 0.22305536 -0.34457526 0.22055152 -0.02458146 0.28663066 -0.11384695 -0.11768901 -0.53041786 -0.5969799 0.12230178 0.19735853 0.35871848 0.32204536 0.098918326 0.05717634 -0.13669616 -0.09830622 1.0924374 -0.30930528 0.036650557 -0.39841756 -0.023640208 0.15107846 0.2224828 -0.18077675 -0.23051699 0.3757693 -0.17135057 -0.3120884 0.09833143 0.24390425 -0.15052302 -0.18254468 -0.13146132 0.3447044 -0.62463653 0.47495645 0.14877705 -0.014302649 0.17376916 -0.26432917 -0.08207379 -0.375768 -0.11846165 -0.025146445 0.0037288938 0.3130697 0.09495246 0.09817042 0.041650396 -0.44735685 -0.002541078 0.03441822 -0.23672505 -0.03882168 0.44978186 0.85293543 -0.42489865 0.86298656 0.32590988
sobre 0.5247277 0.15018313 0.12953496 -0.70652914 0.0017327202 -0.47204828 0.23389673 0.6626445 -0.4481308 -0.5651964 -0.2783012 0.017121 0.12205301 0.11311959 0.3023281 -0.17925678 0.23322241 -0.54643905 0.603305 0.037829194 -0.13878413 -0.037530072 0.5334014 0.17834651 0.090266064 -0.15072478 0.072653465 0.0042298147 -0.0673112 0.55780107 0.31432375 -0.107865766 0.078416295 -0.85434633 -0.33347198 0.83194745 -0.21606581 0.06257851 -0.23039433 -0.4185504 -0.17648885 0.07670422 -0.00067455205 -0.19103788 0.40555432 -0.18081588 -0.53927124 0.4364012 -0.47749907 0.12715109 -0.18205205 0.4977842 -0.36835158 -0.3723888 -0.33680397 -0.012099764 -0.0028518955 0.44417623 0.26614666 -0.40990895 -0.2302306 -0.19020213 -0.2616391 0.3956444 -0.1679458 0.16886109 0.37260872 -0.058019042 0.037383433 0.3045586 0.23786788 0.102327846 -0.18759565 -0.059317403 0.73198164 -0.8753942 0.19931245 -0.4944021 -0.07267256 0.13128828 0.029504405 -0.2535417 -0.105669215 -0.12051959 0.30551928 -0.21115503 0.04273958 -0.056020044 0.26609772 0.28595293 0.124593265 -0.16352057 0.27337447 -0.41413814 -0.4364254 0.5776823 0.018466892 -0.7694944 0.7764969 -0.03172348
guardando -0.26008883 0.20583515 0.36382794 -0.41659424 0.23071331 0.082855165 0.52878356 0.6227791 -0.008271938 0.16795272 -0.16700909 -0.12289719 0.46269077 -0.07060525 0.32230097 0.25183713 -0.3059173 -0.061707795 0.7751081 0.0695442 0.35661373 0.36950478 0.12532221 -0.10679121 -0.048288003 0.13326322 -0.020091897 -0.12246143 0.25788304 -0.13243203 -0.2464858 -0.5299306 -0.065096706 -0.3088755 -0.093535714 0.5917737 -0.13249743 0.016433045 -0.19604106 -0.52068835 0.16411538 -0.7958878 0.28168315 -0.42970097 -0.06322292 -0.2870284 0.021146208 -0.003869037 -0.25378102 -0.01981966 0.1560458 -0.03616728 -0.66133344 -0.077789135 -0.24325919 -0.17551634 1.0757238 0.53455323 0.23739587 -0.51539624 0.11434573 0.025129681 0.40218922 0.08454766 -0.0198448 0.5896556 0.43748254 -0.21900506 -0.310014 0.22538795 0.094505064 0.32804465 -0.12160449 0.19029883 0.19756421 -0.27271163 0.041728906 -0.37446958 -0.03186363 0.24988432 -0.48437962 0.2760749 -0.5676476 -0.09004192 0.26061973 -0.7107419 0.022469519 0.12541129 0.026375432 0.13822244 -0.071542814 0.015389275 -0.11575688 0.1659877 0.39397514 0.49153438 0.48266864 0.12650736 -0.16828 0.47208655
guarda -0.16240154 0.08551465 0.14060324 -0.74798113 0.09409218 0.010498573 0.5262931 0.7820392 0.29734674 -0.15907975 -0.1979264 0.24659544 0.22926751 0.002648546 -0.032779757 0.1589721 0.19529037 -0.4327361 0.5823823 0.0047620446 0.50671214 0.35931444 0.43032166 -0.097638085 0.35909033 0.12853213 -0.1048587 -0.25464207 0.25704893 -0.12392947 0.12834513 0.1802437 0.060505774 -0.00528684 0.06895838 0.16547737 0.13343604 -0.1578207 -0.7056276 -0.25902218 -0.18311822 -0.33136863 0.44039217 -0.33661115 0.10549898 -0.060538717 -0.23690484 0.12119989 -0.06639961 0.09881789 0.24361709 0.046601325 -0.7968608 -0.2688342 0.3163993 -0.028618889 0.6174243 0.26962182 -0.11987689 -0.6188646 0.31946513 0.08611724 0.44700614 -0.070367314 -0.498849 0.3790406 0.36228913 -0.44644317 -0.30365425 0.12926236 0.061943542 -0.23072742 -0.098452516 0.13475649 -0.1434287 -0.43851322 0.09020306 -0.6277506 -0.110987104 0.49370646 -0.37820914 0.32040554 -0.7979625 0.17218313 0.27051887 -0.27316186 0.46641865 0.536818 -0.08533208 0.029487597 -0.073812105 -0.048041567 0.3272973 0.08636934 0.035046298 0.51034725 0.5905232 0.1297196 0.030196175 -0.33511546
información 0.4646627 0.55331826 -0.015134699 -0.5785427 -0.091748595 -0.08785428 0.46484208 0.46329394 -0.19658738 -0.31547904 -0.023393625 -0.3153757 0.48806575 -0.07365516 0.081810296 0.07109736 0.3769997 -0.044477236 0.429484 -0.24177736 0.2603669 -0.39711285 0.16392277 0.11276893 -0.13795593 0.16353494 -0.16419429 -0.2714449 -0.05206241 0.2821849 -0.030558506 0.21323936 0.2902636 -0.8633175 -0.48889863 0.81066823 0.017082235 0.071194045 -0.81171787 -0.2356535 -0.2678253 0.22760914 0.37397793 -0.082500875 0.37329245 -0.24833255 -0.4596152 0.2657711 -0.23226526 0.37295923 -0.24880739 0.3442855 -0.27821496 -0.4045376 -0.08063466 -0.45235282 -0.061413947 0.7009128 0.30669433 -0.423357 -0.18809766 -0.012160596 -0.45220554 0.2394577 -0.16724454 -0.10007979 0.32505363 0.44953477 -0.2055333 0.15157577 0.15505998 0.21690665 0.2354122 0.30036795 0.5235207 -0.45975244 0.3233852 -0.7183061 0.0905836 0.3672828 -0.41466653 -0.049647786 -0.4397013 -0.16377828 0.12804852 -0.40611082 0.013296776 0.16492927 0.12144814 0.21042818 -0.1158898 0.24287064 0.37574887 -0.1660076 -0.01541645 0.58092004 0.3996442 -0.34408203 0.39034578 0.0508462
clima 0.29013908 0.18728901 0.47971064 -0.85726655 0.059256103 -0.5727643 0.37592798 0.12773356 -0.87079644 -0.5654302 0.08100811 -0.9265074 0.54116416 0.31915092 0.55879056 0.18408558 0.26311916 0.42938563 -0.004939897 0.29938847 -0.16686305 -0.70871836 0.37815452 -0.6369514 -0.19728549 0.1739648 -0.2528618 0.14642476 -0.10977467 0.07555708 0.030469656 0.0048911236 0.17800568 -0.5672789 -0.46368384 0.58845717 0.07116826 -0.49379224 -0.28110573 -0.42240494 -0.48738623 -0.17243901 0.17699091 0.0027952176 0.14905038 0.058233444 0.24800628 -0.30894974 -0.30084047 0.2825727 0.69775087 0.076371044 0.19662489 -0.16831003 -1.0667845 -0.07926895 -0.38739207 0.8827078 -0.037273284 -0.09594452 0.18670362 -0.03471247 -0.095798954 0.58592236 0.17180525 0.52403194 -0.144918 0.21732391 -0.23093033 0.74272823 -0.37543988 0.28833964 0.04090017 -0.39997974 0.8113706 -0.12463962 0.42722124 0.09179321 0.38248506 0.672619 -0.37472126 -0.098506406 -0.59706634 -0.3752282 -0.014851054 -0.12832268 0.2913374 -0.6980033 0.6420538 0.3962344 -0.41174173 -0.23591143 -0.47426796 -0.7884792 0.10815862 0.026604688 0.48742372 -0.694664 0.4118852 -0.19992371
qué -0.41400176 0.086456314 -0.22182515 -0.6500083 0.06239929 0.053250533 -0.002638499 0.30984604 -0.14587958 -0.44365704 -0.33386594 -0.53192675 -0.0095614465 0.43477145 0.032869883 0.056150705 0.21807866 0.16897184 0.4835326 -0.06786175 0.42121953 -0.08365932 0.3691502 0.14901254 0.29355416 0.09927822 0.16101761 -0.53280115 0.0301386 0.041337628 -0.073782064 0.35538995 -0.056679405 0.2281103 -0.43836722 0.16081041 0.40512273 0.032720387 -0.16163151 -0.15389599 0.0734902 -0.13656269 0.035559252 -0.40876558 0.100761764 0.36970437 -0.369834 -0.43485084 0.013643193 0.0014001532 0.53201294 0.47814333 0.2250309 -0.18313795 -0.19811302 0.46822175 -0.47761595 0.6391017 -0.50751406 -0.429457 -0.33566505 0.0069386694 0.115728654 0.109957024 0.087356515 -0.07574558 0.040012013 -0.31854698 -0.22306667 0.27716962 0.20898406 -0.024495475 -0.07600916 -0.0053042267 0.20006402 -0.058523823 0.42130584 -0.44893244 0.5013221 0.5127314 -0.40387824 -0.17907254 -0.123859495 -0.30895513 -0.0059942836 -0.08612646 0.5660892 0.12054006 0.2203636 0.111035235 -0.29321274 0.026521757 0.14872803 -0.3448144 -0.40674058 0.58072585 0.6731713 -0.43679956 0.2165782 0.40793523
con -0.2874683 0.036815036 0.085630946 -0.49515393 -0.33593798 0.16446063 0.0064555956 -0.1692694 -0.27005908 0.04038582 0.016331242 -0.4061718 0.11542213 -0.3750775 0.21447356 0.040205676 0.47875175 -0.35802943 0.5084103 0.3395887 0.29664463 0.07731313 0.4896877 -0.060712706 -0.30683687 -0.26310003 0.012117794 -0.18087466 -0.031812508 -0.37186316 0.23388194 0.085788265 -0.507842 0.020320607 -0.0890635 0.3876407 0.08477176 -0.22225915 -0.25018692 -0.24020526 0.16276315 -0.10644096 -0.1155933 -0.35438353 0.021602398 0.19135988 -0.14965746 -0.14502952 -0.05786376 0.09912845 -0.029476605 0.3071472 0.08516671 0.5686495 -0.6990652 0.12627833 0.29109114 0.4584675 0.013577311 -0.18789066 -0.021183247 0.19160613 -0.26687154 0.08055987 -0.15127026 -0.10529108 -0.11584189 0.03882533 0.120987386 0.4928778 -0.12862343 0.06394631 0.074565746 -0.33178413 0.30022594 -0.33106276 0.25880024 0.06732278 0.20376877 0.17681174 0.1353919 -0.21625772 -0.0072775274 0.13641478 -0.15808198 -0.3240014 -0.17689094 0.016117765 0.06449839 0.15497905 -0.27798232 0.11991649 -0.43580982 -0.131097 0.3644352 -0.01567485 -0.03147075 -0.08935502 0.041524194 0.37458906
hacer 0.105879806 -0.37968585 0.39661777 -0.78111035 -0.28905845 -0.36466545 -0.16303474 -0.17944388 0.24555947 -0.37548783 -0.47140506 -0.30319816 0.24533631 -0.088359326 0.042150393 -0.13499275 -0.051741883 -0.30716363 0.8011317 0.54770696 0.40114656 -0.066788286 0.16742592 -0.39992374 -0.03430825 0.022237299 0.0868924 0.32244584 -0.09610361 0.22932285 0.3508781 0.17367631 -0.123634174 -0.39989156 -0.3493434 0.6191592 0.04872706 -0.06590192 -0.3803977 0.16806448 0.14502539 0.14402162 -0.004777794 -0.3701801 0.11638751 -0.26814073 -0.22577012 -0.027638502 -0.56339496 0.30607566 0.23878175 -0.038924858 0.07455082 0.087417915 -0.5480378 0.27010903 0.17068546 0.23912281 -0.30615067 -0.5383464 -0.24725361 0.15263714 -0.40127373 -0.24822868 -0.1271975 0.3305348 -0.59771556 -0.014103177 0.32764885 0.047532003 -0.48665395 0.6782385 0.33547664 0.35124895 0.62369806 -0.20458432 -0.1283953 -0.23938197 0.0072467593 0.3439754 -0.4119639 -0.10166361 -0.5540455 0.019443247 -0.031947926 -0.3142122 0.13446043 0.34984657 0.08253619 -0.009913908 -0.056832172 0.27836964 -0.3768104 -0.14892288 -0.11134097 0.6297568 -0.23091543 -0.23074508 -0.22830679 0.09333396
enviando -0.59158653 0.18227467 0.108464085 -0.75833553 0.17035586 -0.10306969 0.09298406 0.06646585 -0.051906236 -0.12904051 0.25227234 -0.13731061 0.6301511 -0.02558671 0.35332042 -0.06126602 0.46574336 -0.13774906 0.056932945 -0.10837547 0.4030683 0.19583938 0.11313478 -0.2891216 0.10747899 -0.22901528 0.16916206 -0.13827445 0.13416721 -0.7026594 0.23038541 0.388768 -0.5078101 0.28411284 0.012386525 0.14979453 -0.049541432 -0.51387304 -0.75088584 -0.7544251 -0.04145563 -0.5003523 0.29925922 -0.522815 -0.50096095 -0.20555364 -0.012516181 -0.27922502 -0.19428995 0.12688722 0.6321668 -0.19707817 -0.28128105 0.2978135 -0.46994102 0.13632646 0.7349904 0.17297122 -0.28009126 0.11676395 0.44884625 0.17273955 0.35365754 0.09394074 -0.41312978 0.027087718 -0.21656546 -0.5623083 -0.24016665 0.58926076 0.098577365 -0.38513938 0.02394226 -0.097916216 0.08978672 -0.51264733 0.33511192 -0.11313435 -0.03441297 0.105563015 0.41083455 0.4468424 -0.34241667 0.14682607 0.050914917 -0.027324187 -0.30787507 0.50932115 -0.13020718 0.21427368 0.30762985 0.15804699 -0.124178834 0.047958493 -0.2760964 0.41608968 0.21003011 -0.3435538 0.026337178 0.08268126
almacenando 0.34161755 0.41181174 0.16143842 -0.52367884 0.35231766 -0.13678965 0.6557687 0.89177483 -0.0359752 0.07647765 0.23387405 -0.104750775 0.2699606 -0.26775458 0.65709907 0.47142494 -0.31110296 0.07626427 1.0945737 0.21319194 0.27565083 0.26139617 -0.016003093 0.080025055 -0.4174252 0.10123548 -0.0772285 -0.26420176 0.14799666 -0.28216073 -0.0042598564 -0.41428465 -0.3640304 -0.15057196 0.44370863 0.56954134 -0.09570576 0.18563783 -0.197906 -0.6611921 0.011039111 -1.0792011 0.18976177 -0.07510523 -0.2688527 0.14768015 -0.18058653 -0.05903774 -0.27739814 0.22546925 0.5665341 0.29403648 -0.5821486 -0.04529851 -0.55028987 0.56345403 1.0794789 0.6310862 0.10902803 -0.17375411 0.20262314 0.3657105 0.12755999 0.3109117 0.10602541 0.728593 0.17137867 -0.058265276 -0.6179258 0.41922352 -0.08316263 0.09785382 -0.21181016 -0.24048491 0.3988506 -0.33675694 0.22162203 -0.38558868 0.23936673 0.07078358 -0.31003523 0.60841423 -0.6202999 -0.32571995 0.42946014 -0.5801146 0.010295425 -0.050617293 0.34328502 -0.08332992 0.08955631 -0.49795276 -0.42563856 0.10830103 0.1764299 0.049217794 0.3347226 0.0054203854 -0.6723513 0.4821668
dile -0.67618304 -0.1655863 -0.017722262 -0.4047624 -0.08879954 -0.14788722 0.02805244 0.13974713 0.08156302 0.052129116 0.08722175 -0.19523834 0.58252037 -0.105709895 -0.022146989 -0.1765679 0.18047713 -0.15103078 0.16490856 0.007093398 0.43532434 0.07926989 0.22691451 -0.22389545 0.18078707 -0.1909833 -0.007243495 -0.048440028 0.23768716 -0.44382215 0.19262937 0.5290575 -0.1641207 0.56347924 0.23078986 0.09717776 0.03550126 -0.8252486 -0.6492617 -0.6165959 -0.058723547 -0.30894387 0.1512247 -0.5094434 -0.45103022 -0.25882414 -0.101038426 -0.15180825 -0.17762439 0.03141825 0.52470714 -0.13069816 -0.03733801 0.31176388 -0.20105256 0.56864905 0.3880501 0.57551414 -0.024970535 0.053877167 0.1469285 0.25688946 0.44242755 0.1605109 -0.33793277 0.0872441 0.047220435 -0.49084124 0.031320095 0.43516663 -0.09718759 -0.5270645 0.09578457 -0.24234772 0.05486418 -0.27566877 0.28377056 -0.23143303 -0.25270092 0.48443013 0.13314737 0.4862261 0.018215338 0.28881776 0.0865277 0.17065273 -0.16736355 0.35844538 0.09631446 0.07967253 0.36228266 0.3628501 -0.12518266 0.20743328 0.11711093 0.33506146 0.054315034 -0.13640717 0.07037487 0.3519532
par -0.19813804 0.58950263 0.32979727 -0.3420953 0.007597928 0.29140374 0.86800545 1.3113159 -0.22317424 -0.684755 -0.032156207 0.09623155 0.43205807 -0.29774028 0.49721193 0.25443253 -0.009604805 -0.59119 0.94845587 0.028146323 0.15610458 0.5015594 0.0061202743 0.0774343 0.006356822 0.17472705 -0.7136623 -0.59850615 0.18393366 -0.17736821 -0.5315107 0.038014278 -0.8395381 -0.23007652 0.14734127 0.6586434 -0.035384446 0.3325758 -0.61485106 -0.47284725 -0.2822093 -0.9618295 0.129722 0.026716573 0.020807086 -0.053233527 -0.040075794 -0.011903021 0.11236243 0.102273986 0.20642199 -0.019841542 -1.1000638 -0.041510936 -0.4607119 0.08402133 0.6079073 0.6560587 0.39464 -0.95381415 0.412621 0.58529717 0.46860066 0.32594922 -0.64507693 0.6141952 0.07075563 -0.20630075 -0.25462538 0.40773028 0.37155133 0.2927143 -0.112236574 -0.14421731 0.3658136 -0.3131787 -0.2638106 -0.8025921 0.35168958 0.6508927 -0.063449666 0.24882609 -0.50962394 -0.12959383 0.4370049 -0.595652 0.028271515 0.344498 0.23503658 -0.06731669 0.03320642 0.14798117 0.19103856 0.7345536 0.55505395 0.49351656 0.48872846 -0.073928855 -0.91039383 0.21929674
abre 0.44758183 -0.44379163 0.14039011 -0.73468244 -0.118769094 0.06630012 0.18566407 0.53085876 -0.042709973 -0.087199256 -0.32632372 -0.022961508 0.24279079 -0.16093183 0.10220604 0.31410968 -0.12182777 -0.19957182 0.5165798 0.59619576 0.38830695 0.23422608 0.33344576 -0.65296257 -0.24040274 -0.29659393 0.11852534 -0.17157921 0.21561895 -0.123804785 0.098185845 0.064876154 0.06850391 0.053029288 0.32123205 0.6839472 0.14800881 0.33153975 -0.08962136 0.71476865 -0.0051744315 -0.09442779 0.10841011 0.10915712 -0.12887974 0.47285935 -0.14257473 0.27303398 -0.20751408 0.08144193 0.003970296 -0.23855123 -0.47009608 0.36829454 0.06366243 0.3348423 0.49479377 0.21822943 -0.046434205 -0.2659223 0.40124378 0.14250787 -0.08131101 0.01584057 -0.31174037 0.5970813 -0.50190955 -0.4514545 0.20079353 0.01841508 -0.26282567 0.046947755 -0.05464142 -0.27938038 0.43036756 -0.21505931 0.22398084 -0.56226254 0.2997804 0.36752152 -0.108071245 -0.10661107 -0.55417454 -0.052892424 0.01343299 -0.10140341 0.06662353 0.35936096 0.26420474 0.19387043 -0.2798325 0.1446843 -0.5215613 0.1396689 -0.13283676 0.025146618 -0.1818458 -0.01377788 -0.21185988 -0.059466325
lo -0.4725277 0.110814355 -0.10723284 -0.113165475 0.09301937 0.2206353 -0.05563353 0.13840945 -0.28182778 -0.022284888 -0.5193374 -0.21220785 0.32729486 0.1262748 0.009056805 -0.247174 0.45580745 -0.29250985 0.43650767 -0.3510505 0.4585709 -0.26504532 0.30272183 0.024114836 0.25092414 -0.011480963 -0.50079554 -0.2220159 0.2251979 0.118422076 0.029190585 0.5003186 -0.21749763 -0.09034622 -0.26065266 -0.03864277 0.06729627 -0.5860915 -0.38563097 -0.5222236 0.3516439 -0.2380797 -0.014181103 0.0228429 -0.16599864 -0.22588725 -0.42552215 -0.38670266 -0.19240628 -0.024938943 0.29796776 -0.022824919 -0.0022141894 0.4373074 0.018714393 0.27856195 -0.25466627 0.61804986 -0.51561993 -0.37936068 -0.36858568 -0.018081812 0.21006586 0.20061933 -0.068092786 -0.08721026 0.1715775 -0.60401297 -0.07197044 0.012900974 -0.037764713 0.17290615 0.07901844 0.025652463 -0.23485173 -0.32705998 0.07184353 -0.38204682 0.35868803 0.42275226 -0.3492775 0.15715623 -0.21007405 -0.06509539 -0.24362561 0.055388775 0.3261377 0.59570956 -0.12931931 -0.022804726 -0.11428652 0.26563436 -0.021357827 0.25413883 -0.25858608 0.5131106 0.47803956 -0.14446671 0.4431145 0.283848
puedas 0.26809815 -0.35125232 0.43108514 -0.33516574 0.19570741 0.47805214 0.23532622 0.15833084 -0.39447695 0.23306257 -0.5491972 -0.31596372 0.35375223 -0.1666327 0.23777215 0.5060989 -0.10475422 -0.40415838 0.6427493 0.34947884 0.3822972 0.09070075 0.28639275 -1.1538317 -0.1188152 -0.1748682 0.11841345 -0.11764459 0.17630135 -0.22534746 -0.18509082 0.046895284 -0.16141005 -0.107444756 0.09990651 0.79205817 -0.36450672 0.037932064 -0.016355637 0.0697126 0.28534225 -0.42860878 0.07544721 0.21468474 -0.11287579 -0.087446645 0.081785165 0.056618497 -0.21890126 -0.31882566 0.4104694 -0.28129637 -0.9485223 0.64420116 0.053994533 -0.18022366 0.7615874 0.4112568 -0.32678235 -0.26852188 0.31179494 -0.09272556 -0.060521983 0.07915787 0.22106266 0.85779214 -0.49533328 -0.5098306 0.33070436 -0.20980175 -0.7380081 0.37416086 -0.15549578 -0.19729397 0.72522795 -0.4866095 0.17127956 -0.6082893 0.3770343 0.4025149 -0.26710904 -0.09031289 -0.39133707 -0.22067879 -0.049253877 -0.3733643 0.29382023 0.565504 0.34605807 0.46180624 -0.68248343 0.26192194 -0.860631 0.6322908 0.22473659 0.15133904 -0.28841785 0.32741058 0.13179998 0.09953572
tus -0.22061579 -0.2382564 0.3976697 -0.19394353 0.24472083 0.5104956 0.06822782 -0.18688835 0.04299727 0.034559764 -0.41258124 -0.26969734 0.35490242 0.1846907 0.18324432 0.31817615 0.0020795162 -0.15950985 0.5092588 0.011079028 0.6212384 -0.072197825 0.36254805 -0.5018728 0.13491079 -0.055986494 -0.1899171 -0.2650457 0.008282444 -0.5298027 -0.05650927 0.3993675 -0.3220089 0.072389916 -0.57803136 0.33447713 0.0046504745 0.12673728 -0.5027966 -0.3621572 0.86009103 -0.44763795 -0.4394267 -0.21896419 -0.019877184 -0.03724643 -0.31101263 -0.15985605 -0.12148961 0.012256722 0.109236665 -0.11098368 -0.37264097 0.5463442 -0.22848898 -0.1424521 0.23297518 0.2012103 -0.35382694 -0.69387054 0.20887631 -0.09340083 0.56768495 0.2553141 0.097912826 -0.027879605 -0.050007913 -0.4705971 0.1736674 0.11109551 -0.23707558 0.63953894 -0.18800847 0.16234511 -0.0076320097 -0.34742978 0.036602102 -0.4884149 0.23874067 0.22137906 0.16600055 -0.36338112 -0.34432533 -0.18060876 -0.49831346 -0.3543498 0.3711615 0.2655619 -0.385362 0.25439665 -0.37170237 0.31204963 -0.2919881 0.61503875 -0.166659 0.6241767 0.14886843 0.42003384 0.12065444 0.12289401
archivo 0.40671736 -0.15929507 -0.18184865 -1.0626438 0.14929464 0.18323845 0.14274459 0.9058717 0.024540648 -0.01982472 -0.44840035 -0.18558793 0.14220807 0.080009975 0.06382942 0.43256444 0.32719284 -0.6755921 0.70619684 0.3224499 0.33842185 -0.17021626 0.925795 -0.74929464 -0.0094506275 0.095430255 -0.40310538 -0.49172357 0.36158553 -0.061364483 0.16570762 0.27772653 0.008316329 -0.29733458 0.02006626 0.30286622 -0.08145386 0.53035384 -0.50856966 0.3046122 0.05265057 -0.444606 0.17503028 0.3793439 0.4029636 0.7045229 -0.55323404 0.4259595 -0.28737125 0.23176935 0.38405767 -0.15749982 -0.52719307 0.035056084 0.17687258 0.044058617 0.11951529 0.12363143 -0.07671542 -0.5787373 0.46856022 -0.16453917 -0.06695334 -0.13442108 -0.027768843 0.4183567 0.24785936 -0.1879129 0.079743065 0.089018 -0.36640343 -0.041133434 -0.04198006 -0.25793996 0.28765514 -0.28386268 0.30826887 -0.91846526 0.75595003 0.75938946 -0.5882837 0.009313575 -0.87309533 -0.41386774 0.032520767 -0.23582788 0.75311756 0.79969686 -0.11253717 0.23872513 -0.5353213 -0.11285121 -0.41323522 0.11986653 0.04324355 0.27182376 0.3268103 0.47072637 -0.43107924 -0.53318787
tengo 0.22641376 -0.21557418 -0.3861088 -0.17260917 -0.29762396 -0.0618677 0.16600047 0.19161978 -0.4851071 0.11009037 0.018173262 -0.1437395 0.16281389 -0.1301347 -0.31056562 -0.13685036 0.31969333 -0.47301847 0.34205386 -0.06557892 0.6187107 -0.1963887 0.44317335 0.18198073 -0.042901304 -0.8643396 -0.26897383 0.1752682 0.121091545 0.016149659 0.54293656 0.33573723 0.3014033 -0.5169949 0.14933401 0.19494274 0.0690494 -0.46536636 -0.1436741 -0.55939484 0.58791 -0.38918597 0.05723865 0.2600236 -0.24670893 -0.0863344 -0.5999908 0.072685 -0.51270705 0.16561031 -0.19956136 0.128035 0.39096275 0.16783942 -0.040960785 0.3160816 0.16197486 0.98818207 -0.034693904 0.33022267 0.14740607 0.17788011 -0.053076174 0.013953473 -0.3939342 -0.3382108 0.36103493 0.113938555 0.07706531 0.31632912 -0.26012662 -0.12217317 0.061270125 -0.1485987 0.2907005 -0.6046739 0.33257902 -0.2626154 -0.04170767 0.26548004 0.0031389599 0.049502574 -0.38514963 0.4768234 -0.88056827 0.01397055 -0.13625225 0.21618095 0.005212214 0.13361599 -0.058764342 0.2703078 -0.2377043 0.13709317 -0.017446062 0.3044874 0.25247243 -0.12227347 0.47749752 0.33805224
buscar 0.18729971 0.117316686 0.66589046 -0.91352606 0.18670511 -0.38174132 -0.11930658 0.25065926 -0.3139441 -0.27300406 -0.33003527 -0.16301124 0.2340502 0.26173878 0.3222127 0.29784912 -0.15152532 0.4294112 0.68471086 -0.20396867 0.23607914 0.07746165 0.5717583 -0.3300639 0.08636779 -0.34357616 -0.007971087 0.102273874 0.6457288 0.000913279 -0.26923102 0.1007856 0.4967061 -0.31315076 -0.3211581 0.7490364 0.02355116 0.077303365 -0.22623402 -0.64721656 0.30446103 -0.44075233 0.25400057 0.20314196 0.35667148 -0.18919006 0.011932262 -0.33550835 -0.32313865 -0.1925144 0.066635616 0.5336701 0.3176491 0.055183224 -0.5577459 -0.28678247 0.4238263 0.45020825 0.3048506 -0.32336736 0.3636283 0.27337316 -0.12074623 0.5198474 0.004436358 0.100457214 0.65168047 -0.1154963 -0.06459313 0.57657063 -0.55504566 -0.4011757 -0.45997295 0.18261734 0.15527213 -0.3342536 0.387352 -0.17361517 -0.018583307 0.4159218 -0.16485305 0.049664862 -0.28026137 -0.099745005 0.22856385 -0.21342236 0.12540668 -0.4149681 0.23261707 0.56999236 0.068639845 -0.35802028 -0.07224692 -0.37244573 0.37853765 0.26944128 0.028152123 -0.30665892 0.107342385 0.11714893
su 0.5509297 0.31735894 -0.08006197 0.18103272 0.2506029 0.16115537 0.9462124 0.401844 -0.6301932 0.11953941 -0.23830456 -0.17009547 0.5627425 -0.5729554 0.05781852 0.25340548 -0.14750591 -0.12704165 0.22222926 -0.31516534 0.7173593 0.27461135 0.15494898 0.3213951 -0.38430858 -0.050589986 -0.45579508 0.13469283 -0.77901745 -0.36768478 0.139277 -0.22217116 -0.1779348 -0.3952393 0.8457448 0.1557005 -0.27230233 -0.3611542 -0.37630484 -1.0245112 0.11805019 -0.6555507 -0.24269272 0.2916649 -0.37577316 -0.005978965 -0.53237677 -0.21410553 -0.3521387 0.34874022 -0.09439628 -0.29947028 -0.5847177 0.20321138 -0.53832847 0.49702895 0.6138111 0.41354153 -0.10460821 0.035151515 0.2504302 0.41175315 -0.07498893 0.4749023 -0.26549214 0.8643158 0.094094984 0.1501149 0.13530144 0.53879863 -0.06321527 0.349357 0.48245558 -0.6116484 -0.109211124 -0.2569468 0.16198823 -0.71758693 -0.18656467 -0.029109033 -0.24480365 0.5504311 -0.2628981 0.0756487 -0.3757958 -0.22927998 -0.12877223 -0.31726682 0.1397754 -0.22201997 0.07140222 0.21672447 0.23219807 0.51833946 0.2344085 0.27497175 0.5925687 -0.36927363 -0.23149788 0.49232274
carpeta 0.38598126 -0.28161356 0.1442141 -0.8730739 0.51939416 0.1676329 0.3127409 0.750371 -0.068802156 -0.12977925 -0.4805964 -0.5535967 0.14577664 -0.079805925 0.16742468 0.65716386 0.08498192 -0.3763944 0.5439064 0.5142457 -0.026419885 -0.08374748 0.89325774 -0.911346 -0.06053171 -0.033995576 -0.44539055 -0.37149504 0.19325185 -0.22815642 0.2784349 0.44476926 0.13372953 -0.04391561 -0.06985353 0.57421786 0.013930998 0.6619308 -0.10230375 0.20710637 0.21262673 -0.26047152 -0.094899975 0.30246046 0.30682468 0.8962095 -0.7101801 0.72109234 -0.21125068 0.10913175 0.25618917 -0.26417455 -0.27457607 0.41810498 -0.010735198 0.17593144 0.10564041 0.16569856 0.18445654 -0.3780432 0.38318092 -0.010073158 -0.04976636 -0.20311533 -0.09802852 0.3491651 0.14703013 -0.2249783 -0.0017723764 0.11634827 -0.53041005 -0.029234441 -0.048986427 -0.41204047 0.39964497 -0.40070522 0.55959064 -0.8830164 0.67747617 0.43005148 -0.4262214 -0.1747465 -0.63052344 -0.26497573 -0.35486597 0.08708204 0.751391 0.42150834 0.033610083 -0.074083075 -0.6272673 -0.05882499 -0.360616 0.22741435 -0.13797331 0.3506148 0.08057345 0.4743493 0.07981219 -0.31575188
actual -0.08010394 -0.013089055 0.6410078 -1.0516793 0.34737328 -0.29377326 0.0443608 0.3113605 -0.4550834 -0.034216005 -0.24420731 -0.45584118 0.58384216 0.30173597 0.31802294 0.4925287 0.2722982 0.37842068 0.49011818 0.104248986 0.062025946 -0.41118678 0.29953676 -0.68943423 -0.045224477 -0.22879939 -0.0009451668 -0.0058924295 -0.013332611 -0.023585515 -0.21999161 0.13227262 0.52688605 -0.45660922 -0.22222367 1.1728296 0.18091847 -0.17725976 -0.4338542 -0.21188654 0.048834555 -0.16165765 -0.032811534 -0.36826324 0.3789231 0.12295031 0.024605926 0.18217382 -0.47387168 -0.06880233 0.45783904 0.046933558 0.12455446 -0.07292505 -0.7389937 -0.37046304 0.039635092 0.34990233 0.32218388 0.31193393 0.40221965 -0.23009233 -0.16241795 0.06533819 0.62537485 0.41610083 0.40823656 0.24148308 0.082167104 0.79715246 -0.41870585 -0.042571176 -0.13269246 -0.024860112 0.73233193 -0.40028438 0.6234064 -0.4989829 0.29117447 0.3602517 -0.6993311 -0.21332529 -0.4347551 -0.534168 -0.3336763 -0.31209707 0.17658712 -0.5095066 0.8435929 0.7182622 0.021549482 -0.14163719 -0.54450303 -0.59606904 0.21948217 0.11172032 0.17455916 -0.34077507 0.49519777 -0.014502243
internet 0.1567313 0.24648805 0.40771377 -0.7046988 0.3083297 -0.33291227 0.30553073 0.49173424 -0.32007203 -0.2707514 -0.175974 -0.22980882 0.25648117 0.10305126 0.28818932 0.3793482 -0.04692153 0.14637244 0.5490994 0.016853146 0.0711672 -0.17175487 0.40994275 -0.3498437 -0.14801872 -0.019755865 -0.32084474 0.044447344 -0.015153393 0.08213731 0.013379889 0.046114437 0.34882286 -0.58621997 0.036600433 0.67374235 -0.027966637 0.03266131 -0.15452018 -0.3448313 0.14040998 -0.25872642 0.049415216 0.10967141 0.2674081 -0.121138506 -0.091922484 -0.074227564 -0.38042405 -0.04752142 0.0488033 0.15754066 0.11151347 -0.22802374 -0.34959602 -0.27594095 0.28988558 0.45205966 0.20541617 0.19386813 0.22431447 0.021781318 -0.18791626 0.33402932 0.20516554 0.24131957 0.34005573 0.030354308 0.03324161 0.6449793 -0.182043 -0.037590623 -0.06114652 0.09539899 0.3961073 -0.46910205 0.42485073 -0.5548539 0.25166866 0.011986747 -0.47845855 0.21320637 -0.35705024 -0.4334199 -0.1342352 -0.30863935 0.3155999 -0.30856875 0.32103738 0.22226413 0.111639895 -0.2841488 -0.092255495 -0.31936395 0.14858562 0.04012692 0.27707648 -0.40429854 0.11361877 0.0686626
puedes -0.0027914182 0.29234916 -0.04128932 -0.7496208 0.3992159 -0.12602374 0.46121508 0.88252646 0.09702582 -0.6779354 0.09775634 -0.17898375 0.10776417 -0.124796726 0.368109 0.26864946 0.23126212 0.025721332 0.54372245 0.011672547 0.24976538 0.17675525 0.08084873 0.051307775 0.13259867 -0.060435694 -0.11248185 -0.48546207 0.15010005 -0.21406497 -0.17826168 0.27351302 -0.08701108 -0.15980956 0.29755205 0.33485892 0.11237628 0.021439617 -0.5346597 0.13580807 -0.35339966 -0.28957897 0.2408576 0.034013525 0.15514988 0.19502121 -0.4511756 0.087959915 0.022434702 -0.13565819 0.18465792 0.33965996 0.09136014 -0.0045454223 0.055692926 -0.10744691 0.4532623 0.830664 0.4120679 0.007980247 0.08882936 0.10373862 -0.05576847 0.17944995 -0.42388535 -0.20938468 0.22655892 -0.24988379 -0.35120425 0.38396916 0.026607431 -0.49861455 -0.5624046 -0.5047905 0.22392082 -0.6404416 0.45101336 0.1629489 -0.16747615 0.19048706 -0.24068946 0.31370512 -0.007841042 -0.12690508 0.18868071 0.09074499 -0.026490698 -0.02481495 0.31564575 0.22429883 0.22249494 -0.15190347 0.16159709 -0.2119961 0.24052308 0.13579106 0.02960465 -0.5390219 0.0049260864 0.18507032
se 0.3515006 0.30330047 -0.08581667 -0.2625334 0.37568542 0.026684295 0.50449365 0.36707985 -0.16918562 -0.478385 0.19162278 -0.529481 0.29179728 0.07114336 0.43120793 -0.035308197 0.25473565 -0.2795153 0.19314916 0.10567237 0.4517534 -0.28627887 -0.00079129764 0.37230283 0.013911193 -0.27277035 -0.17100699 -0.19185756 -0.23455809 -0.40810373 0.035171185 0.20384252 -0.43189955 -0.2817618 0.43855643 -0.30138317 -0.22484894 -0.17827578 -0.35571325 -0.7864196 -0.08117984 -0.41765988 0.22036731 0.58677185 -0.20488292 0.20735 -0.6344408 0.45383966 -0.056341883 0.33051232 0.53994405 -0.2755419 -0.12030568 0.07356176 0.011723545 0.50500125 0.11447843 0.7749006 -0.15508695 -0.5301613 -0.26645225 0.33832192 -0.13677116 0.69459623 -0.18197389 0.53879434 0.060732916 -0.120364875 -0.023343183 0.014544633 -0.18567157 0.0018357345 0.026346676 -0.88135415 0.38061693 -0.48071018 -0.009367942 -0.17639129 -0.20552233 0.4064429 0.014513189 0.2094314 -0.023812937 0.24925701 -0.06754715 0.45896876 0.056033757 0.1352627 -0.027731577 0.077171214 0.046437167 -0.19126157 0.1748864 0.38102782 0.046233464 0.3864036 0.007577966 -0.38678604 0.10083782 0.053647622
son 0.5629257 -0.10123708 0.19892257 -0.39537108 0.16470006 0.017651819 0.30558246 0.24938527 -0.031937417 -0.25873402 0.22640102 -0.39383933 0.20527276 -0.18474364 0.44650775 0.0826159 0.2724008 -0.46593228 -0.04297467 0.00932968 0.3289742 -0.44779077 0.4275852 -0.6837493 -0.53480244 -0.37844473 -0.094181776 0.1407336 -0.77537966 -0.20529757 0.4910325 0.10610636 -0.33014083 -0.027629012 -0.0076042227 0.37080243 -0.1198468 -0.21209185 -0.055836447 -0.43885764 0.11055904 -0.084924705 -0.040839013 -0.40429765 0.4838 0.031669058 -0.29517287 0.3476063 0.16356412 0.3566965 0.17776193 0.15177675 -0.20360966 0.2952856 -0.7942418 0.5932915 0.5116453 0.83760715 -0.28563043 -0.13448523 0.072036214 0.258649 -0.20742735 0.49942103 0.054704387 0.33583605 -0.7339745 0.371154 0.43994498 0.33050418 0.123477235 0.13114467 0.4287611 -0.41768488 0.4915724 -0.79141486 0.070514135 -0.47717252 -0.14447574 -0.012566172 0.47341016 -0.34258342 -0.23399001 0.4028704 -0.1582968 0.12992558 0.11207129 -0.050853007 0.48257625 0.33788726 0.17865802 0.16500324 -0.1334415 0.09982474 0.070453435 0.29014733 -0.195013 -0.23472871 0.4125379 -0.23621467
pero 0.17332512 0.09598588 -0.0953996 -0.00017599371 0.13377984 0.06469857 0.48285818 -0.13652389 -0.5472677 -0.18043092 -0.41713306 -0.18974826 0.5470076 -0.23136406 0.3365244 -0.12744252 0.21968485 -0.13149032 0.2977724 -0.010938759 0.45268324 -0.2577032 0.041644324 0.62027687 -0.012873985 -0.20141172 -0.24033388 0.1354692 -0.09026948 -0.04826299 -0.05544753 0.35495573 -0.05200544 -0.47743627 -0.020003574 0.20314366 0.1451361 -0.37601218 -0.46604457 -0.30809575 0.3052003 -0.17983796 0.028637765 0.26946247 -0.44940847 0.027196703 -0.880429 -0.45010257 -0.626567 0.49382675 0.11854177 0.3840008 0.11385332 0.061363634 -0.38978004 0.2712088 -0.241983 0.7735989 -0.3743964 0.23215182 -0.2534106 0.27925172 -0.04210261 0.15811585 -0.21648186 -0.39459863 0.0923232 -0.50831676 0.09345623 0.3682888 -0.018146455 0.36936563 0.03537581 -0.14109662 -0.22277254 -0.4689562 0.39630258 0.22371443 0.34164 0.29134196 -0.15087253 0.29640403 -0.18487237 0.2037261 -0.5858745 0.18758604 -0.25500584 0.46453473 -0.21425146 -0.46633872 -0.30784354 0.16666941 0.029342424 0.09523405 -0.18932511 0.51197714 0.2969074 -0.59073454 0.21752924 0.4412821
almacena -0.18246146 0.1815877 0.32382494 -0.8954041 0.07807944 0.02088865 0.38356206 1.355267 0.31766537 -0.06492887 0.09367451 0.022530887 0.2260895 0.113269076 0.33892208 0.36211136 0.05463402 -0.4247986 0.84129906 -0.098556586 0.5341147 0.3677018 0.419425 -0.013488504 0.06258977 0.20786996 -0.127089 -0.664588 0.13614614 -0.12303834 0.08816163 0.037883442 -0.18946844 0.023312267 0.14752612 0.31124425 0.10167447 0.1748255 -0.8390736 -0.45129177 -0.38286072 -0.94418037 0.49539325 0.010695401 0.29353642 0.18214896 -0.24050136 0.43015853 -0.13214539 -0.08986409 0.3899441 0.019516572 -0.68365866 -0.023862148 0.105810404 0.09683007 0.79384655 0.292096 0.09242158 -0.7010758 0.38500446 0.15614116 0.34248576 0.26649818 -0.33854264 0.9688806 0.39369538 -0.08492714 -0.24641664 0.4805987 -0.237166 -0.33767325 -0.32274646 -0.12012975 0.32080856 -0.21978733 -0.11204145 -0.44903526 0.14324278 0.2841724 -0.12904073 0.34524554 -0.7639295 -0.1444964 0.61511153 -0.24020283 0.2884415 0.58135647 0.100491986 0.04031266 0.18411247 -0.17823671 -0.048967656 0.42737597 0.15474033 0.46129987 0.26802915 0.22797512 -0.40128797 0.015993388
eres -0.23939748 -0.04146442 -0.06323522 -0.38810164 -0.11322617 -0.01364341 0.67631984 0.32932 0.08211482 0.1046018 -0.42133132 0.1630577 0.5265787 -0.43000636 0.046409942 -0.18464081 0.27749786 -0.39439404 -0.20929278 -0.08948387 0.55371684 0.18417335 0.21259943 -0.107948914 0.22060598 -0.19488885 0.06493547 -0.13826267 0.24345687 -0.12582569 0.27509913 0.8276635 0.031189168 0.44311023 0.66879964 0.3101477 -0.058139313 -0.40526178 -0.75415045 -0.25462365 -0.07291211 -0.29206973 0.19989908 -0.26961565 -0.6010159 -0.3646677 -0.17537384 0.280695 0.0069756466 0.32996723 0.18177517 -0.16990867 -0.2577839 0.40432036 -0.020261496 0.622497 0.6985574 0.30210152 0.04545815 0.006317654 0.54720306 0.31052992 0.5399 -0.088143125 -0.6249991 0.07783501 -0.28158525 -0.5631663 -0.11771537 0.39821225 -0.13792369 -0.38449308 0.017332498 -0.6516535 -0.22492144 -0.5665603 0.17604373 -0.13098499 -0.30953392 0.6570281 0.15338993 0.43051156 -0.25243834 0.19941804 0.2494765 0.103537954 -0.09138806 0.696987 -0.10584772 -0.09345425 0.4133636 0.30955455 -0.0131013235 0.115313694 -0.16994043 0.49305478 0.056656178 -0.36245903 0.3192168 0.039275594
encontrar 0.56222445 0.063785225 0.13401699 -1.0183063 0.29862258 -0.5467431 0.35860428 0.6907624 0.18230593 -0.5462768 -0.4690605 -0.37471625 0.038180735 -0.14122891 -0.012264514 0.02750512 -0.10467028 -0.0260851 0.7260646 -0.24576803 0.25566894 0.51431525 0.24261574 0.18888155 0.046803083 -0.21854234 0.26825404 0.19885226 0.23428437 -0.029769741 0.092887655 0.4461918 0.40886796 -0.17448065 -0.04072525 0.5421961 0.41512215 0.4944108 -0.39271134 0.23307966 0.078462444 0.27799422 0.06870984 0.09972146 0.34602037 0.078763306 -0.571702 -0.0021626502 -0.58372366 0.48630756 -0.121047154 0.6373424 0.43778145 -0.45824665 -0.15261127 0.50305927 0.2531465 0.63608724 -0.05902188 -0.29868442 0.055888724 0.16451395 -0.45741907 -0.22556975 -0.4735027 0.10288471 0.18683347 0.026210658 -0.24625415 0.028878149 -0.2098952 0.029877968 -0.038484074 0.11190239 0.1728684 -0.3095207 0.57158864 -0.5248586 -0.45134982 0.35157952 -0.44379163 0.060930096 -0.57421714 -0.14388719 0.418692 -0.0610652 0.5923282 0.06286368 0.19941415 0.041141134 0.20919284 -0.06403502 0.15066917 -0.32944185 0.021733815 0.5392855 0.08994716 -0.2675654 -0.06572695 0.11576956
como 0.37722027 0.10892202 -0.2558412 -0.38850522 -0.13448925 0.09163779 0.044825666 0.11909788 -0.2961965 -0.06733215 -0.13540992 -0.23907904 0.15901944 -0.2817696 -0.06585473 -0.059680857 0.3532509 -0.119764075 0.59383434 -0.21597719 0.14226447 0.17938161 0.5210587 0.1608658 -0.21054947 -0.436521 0.011316308 -0.3471432 -0.021179417 0.12893105 0.33524656 0.32497993 0.23181812 -0.3350174 0.016714424 0.12622908 -0.28043845 -0.22770663 -0.32303664 -0.2797515 0.2399077 -0.2523372 -0.021088896 0.33621383 -0.2946556 0.0869641 -0.6601741 -0.17028561 -0.38035074 0.1547381 -0.15294173 0.47722274 0.1971181 0.19074742 -0.17248584 0.30757007 0.05044601 0.47461239 0.12898047 -0.0072296807 0.23002307 0.35205063 -0.27116528 0.09223303 -0.4161933 -0.36546546 0.4191188 -0.1256476 -0.20409869 0.22577171 -0.040359206 -0.363797 -0.13344887 -0.3653712 0.19103366 -0.3067487 0.38135654 -0.3561216 -0.0018340767 0.4030435 0.04104683 -0.11102731 -0.042330503 0.23053761 -0.31961688 0.039221745 -0.08775965 0.16760026 0.18987541 0.2681301 -0.0768892 0.06366612 -0.14343573 -0.099424526 -0.25435552 0.3745629 0.34791455 -0.2657383 0.18628386 0.32135636
voy -0.21850736 0.075098224 0.42297977 -0.62755466 0.36874568 -0.31202847 0.16966493 0.48348576 -0.22761966 -0.37363526 0.114106186 -0.31386995 0.45760086 0.34399503 0.6494953 0.43079638 0.1067481 0.18353601 0.6356709 0.12437662 0.14882098 0.20222749 -0.15413085 -0.45524216 0.3558587 -0.06449542 -0.37493208 -0.43720654 0.15095164 -0.38139388 -0.3668267 0.06226029 -0.129475 -0.4449092 -0.19200103 0.7757636 -0.057274267 -0.30256167 -0.75509983 -0.4210273 -0.13595979 -0.55905 0.16009025 -0.26114365 0.03864739 -0.15032353 -0.14275071 -0.013597308 -0.34093842 -0.15169285 0.44201693 0.039926622 -0.032463852 0.05982235 -0.4089295 -0.567349 0.39186722 0.41649565 0.5724729 0.15987232 0.2563057 -0.2217453 0.08439649 0.4311947 0.35785198 0.5610725 0.23681405 -0.1874676 -0.09477819 0.5271339 -0.3654797 -0.18832828 -0.5055355 -0.29901382 0.5734082 -0.3888814 0.075223126 -0.17503537 0.1272726 0.08363213 -0.38183823 0.19290337 -0.13037182 -0.41319793 0.03524655 -0.047336377 0.026154632 -0.48452994 0.5676562 0.6330537 0.43927342 -0.039750844 -0.1634551 -0.22484376 0.18227719 -0.020066423 0.022083515 -0.39528826 0.10895169 0.09473911
más -0.2420438 0.2050864 0.40966782 -0.28464454 0.09379093 -0.094599016 -0.14924054 0.4239403 -0.21064487 -0.45135063 -0.20059659 -0.024173075 0.6310184 0.6195514 0.1472156 0.0018314946 0.4214074 -0.44282833 0.053778246 -0.021727461 0.28800493 -0.2518112 0.30621195 0.114267856 0.3017498 0.36571974 -0.30015203 0.03792969 0.31610766 0.16136341 -0.02121232 0.37446067 -0.10204456 -0.22763321 -0.06791088 0.40284872 0.20398417 -0.4041339 -0.43604317 0.024182687 -0.25715607 -0.082032576 0.21776366 0.15414922 -0.062232852 -0.1658743 -0.30169284 -0.0021059546 -0.1515519 0.086644374 0.23658586 -0.016228821 -0.6678003 0.12959835 -0.08368754 -0.22608563 0.11073948 0.17873712 -0.42978153 -0.3867889 0.24206612 -0.11559623 0.5134288 0.541296 -0.4286454 0.02583579 0.34435833 -0.61275274 0.09191341 0.4778721 0.24731049 -0.21726303 -0.22661933 0.07005995 -0.07103333 -0.21351986 -0.124228746 -0.40090346 0.42639962 0.30814856 -0.41213 0.033562075 -0.34343195 -0.12183926 -0.29514697 -0.027801087 0.33174366 0.6079148 -0.018242136 0.02295218 -0.09811262 0.14415137 0.31915545 0.13241053 -0.25613382 0.42476517 0.6194489 -0.29926357 0.07767484 -0.15990311
estableciendo -0.21642053 -0.42740166 0.5747749 -0.6934402 -0.19273765 -0.33147767 0.02077394 0.21706854 -0.2671803 -0.15753073 -0.37253684 -0.24128333 0.34806007 -0.34762442 -0.14208145 0.16302077 0.19640546 -0.4983179 0.3303818 0.003488419 0.496144 0.018644124 0.24225625 -0.5925153 -0.26686624 -0.29676864 -0.18478183 0.58800733 -0.20245622 -0.35775998 0.49623543 0.470998 0.093042456 0.092207864 0.11659864 0.5535782 0.3834092 -0.96894795 -0.53382915 -0.057215407 0.25464332 0.22755466 -0.083835095 -0.65884376 0.2519045 -0.4217776 -0.20947835 0.026867557 -0.6504695 0.2623794 -0.1706288 -0.0095911985 0.03914302 0.603237 -0.46000543 0.36008698 0.3445634 0.6128408 -0.13245392 0.3105078 0.18596181 0.025867991 0.0287073 -0.35032144 -0.36427528 0.49397597 -0.06649639 0.11922178 0.4180955 0.53634584 -0.5302396 0.38022852 0.29271552 -0.027639003 0.0643424 -0.22477084 0.36874682 -0.3063497 -0.17926183 0.027243402 -0.29327476 -0.010565206 -0.7022604 0.7953776 -0.4512686 -0.027258787 0.07571764 0.12489276 0.45287886 0.3447569 -0.32036683 0.37937194 -0.5136941 -0.05424028 0.31889382 0.45530674 0.3315086 -0.060284764 0.6785031 0.21762753
música 0.68019 -0.15243296 -0.12017323 -0.6005418 0.34170803 -0.0015263949 0.5383757 0.2806451 -0.19888285 0.13131702 -0.19749323 -0.5202531 0.22417457 -0.16958193 -0.22174387 0.60280704 0.21672738 0.061788697 0.092947125 0.059986744 -0.2899622 0.32689586 0.12659687 -0.5526255 -0.16138396 0.22489034 0.07985498 -0.22282107 0.05420285 -0.0031680174 0.039522972 0.38055316 0.2908309 -0.6591633 0.3364967 0.5122091 0.35476625 0.2824472 -0.23633926 -0.004818986 0.17722803 0.0051214937 -0.030035438 0.29216444 0.18121816 0.5598945 -0.9278973 0.89640135 -0.02713376 -0.13551176 0.011516147 -0.12547857 0.11713253 0.62285495 -0.11910456 0.26601326 0.11361114 0.29365787 0.0030560666 -0.52974135 0.14615142 -0.09273241 -0.17243667 -0.09412881 -0.12508819 0.33303267 -0.10319646 -0.095427915 0.11760148 0.32645562 -0.2198134 -0.1948402 -0.1875282 -0.1439699 0.16483001 -0.7512237 0.16268288 -0.3617684 -0.04797161 0.31988633 -0.6389773 -0.2841945 -0.33585966 -0.20328283 -0.2105393 0.38218817 0.4153437 0.40527675 0.24954712 0.3713508 -0.33590597 0.26729012 -0.24508001 0.023105275 -0.29091576 0.42194295 -0.16618496 -0.49329597 0.35790566 -0.04440577
enviado -0.6110893 -0.09671631 0.23552598 -0.5694767 0.119361706 -0.110093914 0.07679079 0.041816488 -0.016848782 0.002845746 -0.03930503 -0.18878102 0.6040861 -0.05823048 0.22278874 -0.057622183 0.2772774 -0.16056758 0.010353994 -0.05433813 0.53302526 0.13347691 0.16023129 -0.31945932 0.1980186 -0.12622522 0.077384256 -0.05422222 0.17910759 -0.5100636 0.17347656 0.47765076 -0.319163 0.53439146 0.07285733 0.20209071 0.09183611 -0.6975041 -0.6109907 -0.43417534 -0.0041462616 -0.30139524 0.20570444 -0.62112075 -0.39763373 -0.16857012 -0.05443026 -0.15644708 -0.14954017 0.21505676 0.6038429 -0.16475055 -0.13968265 0.37716877 -0.34501624 0.32318893 0.4506833 0.28982592 -0.21432923 -0.062273875 0.23172472 0.1246075 0.4451401 0.056908563 -0.29827598 0.2116875 -0.10200903 -0.535144 -0.05207861 0.44544384 -0.07303042 -0.30009753 0.07047109 -0.2168355 -0.09032479 -0.2498989 0.1557763 -0.095675714 -0.11021309 0.367202 0.14925061 0.27900723 -0.25159863 0.23554315 0.067927755 0.15216069 -0.10808389 0.3914413 0.0937113 0.13217203 0.2715674 0.33023536 -0.18028273 0.032155655 0.025828728 0.3542118 0.19078068 -0.24505782 0.1007246 0.08306513
aquí -0.12112471 -0.059769526 -0.17321992 -0.10852961 0.19390178 0.23182133 0.12497075 0.16298279 -0.2838193 -0.008853865 -0.64361215 0.09644112 0.30405745 -0.16024518 -0.025976745 0.1507327 0.28278217 -0.32334226 0.66823673 -0.43079147 0.2756819 0.16604319 0.04127752 0.074005045 0.22233 0.11944989 -0.12999418 0.1819287 0.3900343 0.14061211 -0.06124704 0.17611553 -0.13857286 -0.10733429 -0.33895022 -0.028659774 -0.30201003 -0.54162955 -0.13133053 -0.8441846 0.27117017 -0.43132755 0.28301844 -0.16318823 -0.06850103 -0.23641929 -0.3743827 -0.68909115 -0.5870283 0.13798228 0.36296868 0.44212452 -0.16381137 0.1288329 -0.23213 0.17559803 0.109203696 0.92879343 -0.3531369 -0.22001784 -0.35591358 -0.188756 0.1580747 0.048198733 -0.1796685 -0.20815502 0.28799143 -0.4827434 -0.42027023 0.13744931 0.10720765 0.46811417 -0.05982582 0.09238175 0.08810151 -0.54104835 0.3157957 -0.01042203 -0.033577617 0.34293756 -0.487231 0.30611625 -0.47214356 -0.0214158 0.024527254 -0.3352688 0.3567708 0.5700945 -0.19250418 -0.20989732 -0.5596532 0.002420556 -0.21397738 0.14825726 -0.2522604 0.56056786 0.8833755 -0.09288936 0.22948506 0.88193536
hola -0.023285653 0.4830474 -0.1241183 -0.5596042 0.18927467 -0.27019593 0.33679307 0.6274863 -0.2301034 -0.41633368 -0.021081131 -0.0005298316 0.29344112 0.13569346 0.43801892 0.018700616 0.44236565 0.15226382 0.43817323 -0.29142547 0.04877773 0.11788946 0.23069331 0.35078403 0.21777327 -0.1495643 0.026723314 -0.53621703 0.19006889 0.22648804 -0.12654117 0.31543756 0.36165878 -0.32351938 0.07827556 0.47474876 0.06035448 -0.25397098 -0.5042836 -0.1511536 -0.15167782 -0.21119526 0.25467932 -0.079733245 0.072872095 0.02635094 -0.44532385 -0.14614968 -0.031838197 -0.06790762 0.4289794 0.5849792 -0.029388439 -0.357558 0.03695341 0.13886534 0.042008836 0.82007957 0.16277339 -0.2196271 0.072914205 0.23566107 0.07018511 0.17498028 -0.38758785 -0.37637642 0.20147066 -0.30758202 -0.70047975 0.3813034 0.27054924 -0.72353226 -0.39233962 -0.252524 0.3008749 -0.49961388 0.6236189 -0.21341059 -0.1098415 0.5381079 -0.18749301 0.4445765 -0.07344899 -0.19478506 0.2051808 0.040056165 0.08878212 0.22460993 0.3413878 0.19237919 0.14550778 -0.25445732 0.17113346 -0.39309582 -0.1118332 0.27279285 0.54620343 -0.6276777 0.26075396 -0.094480366
o 0.06311516 0.2271084 0.08330779 -0.5318 0.2666512 0.12538151 0.16128264 0.44790724 -0.3265452 0.053168353 -0.54237753 -0.23373196 -0.12543654 -0.24767987 0.053954095 0.22867751 0.1495096 0.016999828 0.7835307 -0.13550146 0.08849267 0.015774759 0.14721236 0.069513366 -0.1268687 -0.017359696 -0.09346369 -0.10010711 0.029198363 0.206383 0.05231787 0.02010754 0.093753904 -0.30064914 -0.21954113 0.306217 0.053940013 -0.23851933 0.020162653 -0.22930433 0.3141571 -0.13088335 0.032490477 0.123340726 0.021830669 0.072461516 -0.42788234 -0.5016994 -0.24380244 -0.1275794 -0.091984555 0.49032733 0.27559367 0.48330572 -0.40043983 -0.19368632 0.18629175 0.8246958 0.18299131 -0.10136112 0.01347435 0.10493251 -0.4705159 0.34559003 0.1653453 -0.26604307 0.39877298 -0.31077188 -0.033567436 0.17833847 -0.12048442 0.14124759 -0.39322287 -0.13643202 -0.11255511 -0.43713528 0.32055232 -0.044434484 0.063052215 0.13792352 -0.066227674 0.04698928 -0.027463315 -0.26961175 0.11466133 -0.2822281 0.106961034 0.08017873 -0.043759532 0.032254588 -0.22911465 -0.035181772 -0.036824066 -0.12365757 0.314072 0.24296008 0.31366423 -0.48152912 0.35202873 0.5426444
gracias -0.935896 0.03193254 -0.031793125 -0.51507545 -0.02064895 0.1573283 0.5401832 0.32125112 0.18168549 0.056359045 -0.13620219 0.34379205 0.42533788 -0.5325434 -0.12969631 -0.19814771 0.47684374 -0.44237536 0.22219726 -0.07321839 0.5498668 0.11048898 0.29938108 0.056705005 0.41080967 -0.22782028 0.16060168 -0.15807249 0.22332677 -0.31128365 0.14431693 0.45517403 -0.28920916 0.5279093 0.07233312 0.16421965 0.07106915 -0.7281955 -0.77118915 -0.7773527 0.1059631 -0.49799585 0.44006518 -0.60141975 -0.37592304 -0.2870046 -0.15754879 0.046493225 -0.07516702 -0.06739437 0.30442858 -0.056101903 -0.29193884 0.13637133 -0.30344737 0.086945966 0.8020429 0.33231547 0.098437846 -0.21361667 0.31390515 0.12871374 0.67567956 -0.19100326 -0.53359675 0.1745259 0.19630854 -0.3588502 -0.30892864 0.4932595 -0.23322795 -0.14103574 -0.012077729 -0.2557643 0.07702386 -0.53487706 0.07845166 0.024433026 -0.39278308 0.5667055 0.063757196 0.6657101 -0.23128928 0.14090094 0.25938937 -0.10591371 0.02113763 0.45283452 -0.26029885 -0.20841219 0.18031707 0.34662214 0.053832192 -0.064098485 0.25290492 0.5589516 0.2581023 -0.17205492 0.42806542 0.06104022
ayudarte -0.1781673 0.12532538 0.10036297 -0.32060942 0.17769936 -0.09980266 0.06799046 0.2234375 -0.27685115 -0.34338292 -0.66194046 -0.19371283 0.2792073 0.09914601 0.060437653 -0.088457435 0.27586597 -0.08397712 0.77063465 -0.39923385 0.3115059 -0.10171301 -0.1441793 0.1352144 0.45056683 0.041296795 -0.0665196 0.13840112 0.40762383 0.20975856 -0.16098367 0.23407477 -0.031521402 -0.17796919 -0.57579815 0.24932261 -0.048122764 -0.49112263 -0.25627866 -0.53317183 0.30187988 -0.23700951 0.20607103 -0.33293185 -0.023193173 -0.5010259 -0.29364735 -0.6918759 -0.52012813 0.12773812 0.44688058 0.41320965 0.026428154 0.07537798 -0.31996623 0.01973129 -0.10532044 0.97027653 -0.3383367 -0.2845828 -0.27240363 -0.116023995 0.07018068 0.0100766355 0.050722357 0.01460664 0.29298884 -0.48482993 -0.21691622 0.012395436 -0.29014102 0.5834221 -0.10196909 0.29915813 0.13920325 -0.2761914 0.29594237 0.05852491 0.041451715 0.39486724 -0.4669032 0.1307627 -0.74532735 -0.1658294 -0.09755214 -0.28612322 0.45265707 0.27312806 -0.10093714 -0.20797041 -0.3524538 -0.032034025 -0.18071398 0.112053886 -0.05056347 0.5177561 0.70679396 -0.21957748 0.13655783 0.60688245
guárdame -0.24379501 0.14006986 0.17545235 -0.73215413 -0.017493116 0.015646758 0.5739452 1.0735465 0.32931778 -0.16479105 0.054207493 0.22415069 0.2763207 -0.05688407 0.26770967 0.36218286 0.025433565 -0.45415083 0.764482 0.09198423 0.5362772 0.5391645 0.48954022 0.03524404 0.26941177 0.04866695 -0.10389399 -0.6161797 0.19174355 -0.19008088 0.08164851 0.016271513 -0.095667675 -0.008123801 0.18245503 0.4063657 0.093947336 0.021946572 -0.7192492 -0.35974345 -0.19424383 -0.76912457 0.35904112 -0.29892692 0.18779929 0.06055836 -0.20801815 0.24240282 0.10805084 -0.08405894 0.25691682 0.018377254 -0.87918323 -0.19588421 0.28823474 0.11964847 0.8409324 0.24093792 0.13117522 -0.7769547 0.32635137 0.31615552 0.4654753 0.068972595 -0.59924227 0.62369114 0.25967443 -0.28343487 -0.3394025 0.3175842 0.0018354896 -0.46074104 -0.110388294 0.09363292 0.17045557 -0.29190958 -0.003737368 -0.7717934 -0.04772691 0.42713994 -0.098338135 0.33341795 -0.7095529 0.17019185 0.36192495 -0.34107417 0.20884736 0.5190996 0.02427325 -0.005310397 0.13196214 -0.08701426 0.18478408 0.26890388 0.16043577 0.45237502 0.4785836 0.17640929 -0.29250705 -0.3080047
ti -0.45548105 0.24287778 0.2746616 -0.2932785 0.44321275 0.062197983 0.34596738 0.081247605 0.013098056 -0.06520545 -0.14214417 0.035469323 0.59495217 0.11200465 0.18487158 0.07086237 0.06883326 0.00266596 0.4465005 -0.09299637 0.44094086 -0.02966595 0.012204202 -0.11596517 0.38387415 0.13015658 -0.29209703 0.074757695 0.27770865 -0.36082524 -0.25402054 -0.005487857 -0.13785738 0.026515314 -0.0945867 0.21290787 -0.008229529 -0.54183155 -0.32708913 -0.5296567 0.10262197 -0.47059235 0.26563326 -0.2969372 -0.15558182 -0.29074726 0.07104555 -0.3331597 -0.24065167 0.07542537 0.33423892 0.087028354 -0.37727177 -0.08405245 -0.24827564 -0.13486107 0.478864 0.64358544 -0.104170926 -0.24959627 -0.06139863 -0.037007034 0.4594517 0.28096202 -0.018539755 0.08613256 0.38038427 -0.35049665 -0.21462323 0.2479213 0.09393223 0.0479238 -0.04280071 0.2958082 -0.36901584 -0.39770162 0.090600245 -0.052013256 -0.112106055 0.38158676 -0.42189056 0.16793841 -0.47489983 0.12428658 -0.07598463 -0.14428861 0.19865294 -0.02415782 0.106234044 0.050689492 -0.104101844 -0.114353746 0.20935182 0.09010131 0.35014245 0.35458246 0.60286963 -0.14346115 0.10398224 0.21032138
entendido -0.023225492 0.16180477 0.5444281 -0.20330751 -0.100362614 0.24547589 0.2897769 0.53252023 -0.38075265 -0.16771126 -0.15876621 -0.16872899 0.26759693 -0.22504567 0.45180163 0.39192942 -0.15461361 -0.11336136 0.94544995 0.229547 0.1994257 0.019451723 -0.05474373 -0.0993463 -0.39612052 0.029072108 -0.14868383 -0.20760782 0.15803552 0.14544544 -0.20970361 -0.0633314 -0.7154567 -0.19612077 0.15071571 0.6476111 -0.06457599 -0.019885594 -0.0840969 -0.6687475 0.13035944 -0.90350604 -0.09653698 0.08881171 -0.029033802 0.0104444055 0.032538757 -0.15402023 -0.23412442 -0.11112469 0.47188807 0.04071606 -0.6048626 0.32384425 -0.7399406 0.41408303 0.5024259 0.3245053 -0.09248451 -0.37284702 0.032545563 0.47865954 0.12524517 0.10142482 -0.18912697 0.36873248 -0.26116797 0.023081768 -0.071044736 0.51219875 -0.32184365 0.46553025 0.03097648 -0.07924631 0.61970377 -0.33672145 0.034170374 -0.42948517 0.4257815 0.3920839 -0.02908918 0.15135752 -0.35509503 -0.3396554 0.0016853425 -0.7707862 -0.11960383 0.36036244 0.43759552 0.007307953 -0.42973608 0.017216723 -0.69117457 0.6142894 0.2824242 0.28990063 0.122265555 0.08856516 -0.5734959 0.5759097
soy 0.3235462 0.06186374 -0.45880207 -0.21193646 -0.3398945 0.000941397 0.22129254 0.37230164 -0.27010518 -0.1917872 -0.30234495 0.09956803 0.356905 -0.13205647 -0.15226147 -0.22623104 0.55316365 -0.48867652 0.28835934 -0.43012753 0.44079465 -0.100583784 0.40791732 0.1785393 0.02432663 -0.6570576 0.01884759 -0.14697449 0.2537974 0.29734656 0.40994152 0.5539021 0.36235785 -0.49053264 0.33288062 0.22190021 -0.21148844 -0.31546754 -0.40002385 -0.09467444 0.30317715 -0.16452244 0.2747557 0.3086173 -0.10094916 -0.12811041 -0.61949587 -0.0021249044 -0.4743322 0.41110033 -0.11241733 0.39916617 0.09891008 0.18182808 0.2556361 0.28100216 0.15192802 0.63428366 -0.19428723 -0.08535598 0.22658555 0.21522458 -0.18621153 -0.111581 -0.7031003 -0.45948613 0.21045995 -0.24297926 -0.015686516 0.27560818 -0.052204266 -0.3382044 -0.009706505 -0.43686113 0.17738937 -0.44278842 0.26543885 -0.30631924 -0.12933852 0.7148613 -0.11963325 -0.013619381 -0.40142563 0.3770176 -0.35530686 0.15189064 -0.04332675 0.6706235 -0.08629449 0.17767598 -0.022133874 0.022849826 -0.15844627 0.026083685 -0.14240602 0.40754467 0.29555675 -0.31931219 0.17293854 0.12093144
web 0.18214893 0.11840747 0.4007511 -0.8896603 0.5538695 -0.29333353 0.24502632 0.35258067 -0.23328666 -0.03348648 -0.30383483 -0.24236731 0.26945302 0.18374589 0.13204247 0.43387312 -0.09450503 0.20628773 0.64065516 0.02866864 -0.08176257 0.1429621 0.26492342 -0.34411466 0.022364654 0.11190448 -0.13788438 0.050922286 0.3062305 0.12584235 -0.109383434 -0.10686464 0.45969275 -0.41501275 -0.14677067 0.8371358 -0.038084585 0.013301545 0.17001572 -0.40491423 0.3147768 -0.132967 0.035084847 -0.2050645 0.16999947 0.020540692 -0.15459566 0.04146854 -0.5054397 -0.058431745 0.12667996 0.16526544 -0.036575504 0.060077555 -0.19020577 -0.26551896 0.3116987 0.5757369 0.5878099 0.08240335 0.21977101 -0.06961829 -0.052196845 0.10900969 0.33872336 0.094203584 0.830503 -0.3819207 -0.0871414 0.29251745 -0.22898255 0.0239584 -0.10686119 -0.071920514 0.18020207 -0.56913793 0.42258435 -0.5480202 0.039481875 0.15119103 -0.48880503 0.027312845 -0.41652107 -0.13408905 -0.11363396 -0.3347864 0.2599475 -0.09748872 0.15493123 0.24211508 -0.14573702 -0.013590418 -0.15965872 -0.15804756 0.37874153 0.14711058 0.37013915 -0.20393172 0.28511345 0.21852183
guardado -0.25968733 0.03748399 0.10050113 -0.3951734 0.07402433 0.025892707 0.4149951 0.14573939 0.17060663 0.12569562 -0.30221015 -0.050243292 0.3227019 -0.09230492 -0.05975396 0.27318317 -0.0790121 0.0046242615 0.35153592 0.1856701 0.5229651 0.2406539 0.42606395 -0.20326571 0.13528179 -0.03714806 0.20966971 -0.14805074 -0.06420684 -0.24860846 0.29215962 -0.0734631 0.07079079 -0.043442324 0.09075923 0.28264356 -0.036556467 -0.3619522 -0.30220515 -0.26117367 0.26710606 -0.2939861 0.05001053 -0.5653467 -0.19705994 -0.11135476 -0.11381348 -0.0672865 -0.027706368 -0.01427692 0.023897516 -0.15557851 -0.3544891 0.01822998 0.13671589 0.14190178 0.5260738 0.17918418 -0.2618984 -0.2605918 0.035701733 0.095571056 0.25460035 -0.033348717 -0.09266683 0.21144953 0.13683943 -0.31674185 -0.077384844 0.12736775 0.011797917 -0.16508925 0.09287191 0.07429543 -0.11040627 -0.24725418 0.0874818 -0.522376 -0.11418695 0.25089037 -0.29447222 0.096404664 -0.3291294 0.16507272 -0.09389753 -0.33673367 0.22084278 0.11710328 -0.07635253 0.006640375 -0.081715226 0.15657586 0.19210824 -0.20511533 -0.021240868 0.34049827 0.44009703 -0.036118727 0.4279636 -0.018058147
siempre -0.6166247 0.17143245 0.20330459 -0.21110938 0.06315197 0.1640768 0.32289007 0.07427398 0.101857334 0.053409465 -0.17285791 -0.19982067 0.43708828 -0.4735091 0.13990319 -0.17477264 0.28763047 -0.2665672 0.3663234 0.075110614 0.40645832 0.01356885 0.3199453 0.20219113 0.13696088 -0.010016808 0.03520163 -0.14843868 -0.07275957 -0.40356663 0.07744157 0.48991168 -0.6298858 0.46199214 0.10392718 0.120685056 0.14601405 -0.8082526 -0.728721 -0.6902265 0.05521022 -0.27075636 0.19528626 -0.6162672 -0.3170377 -0.25413212 -0.2621031 -0.052851986 0.19373052 -0.053893797 0.38205588 -0.03789409 -0.043029524 0.28462508 -0.63618624 0.40328002 0.40208146 0.781342 0.08328968 -0.36086458 0.0687077 0.305258 0.3663169 0.17472404 -0.3160959 -0.15323204 -0.0032924542 -0.20001848 -0.20112091 0.47699898 -0.0491935 -0.18418226 -0.05434966 -0.22116202 -0.12308991 -0.5011981 0.122473665 0.22203295 -0.32658884 0.3951781 0.22458418 0.43588635 -0.043864667 0.0965459 0.029418351 -0.21785049 -0.18272755 0.21434781 -0.07377435 -0.07695213 0.19135074 0.16547497 -0.0529565 0.15948643 0.36145496 0.4141593 0.14151168 -0.34358683 0.1589449 0.32181403
significado 0.69447577 -0.15752792 0.106229745 -0.31402794 0.16594222 -0.0926115 0.51286584 0.24587831 -0.78741604 0.16669495 -0.118911594 -0.31006485 0.45794567 -0.44025347 0.25913787 0.14507727 -0.031310793 -0.039579038 0.46799514 -0.12562627 0.019487735 -0.25427958 0.19526279 -0.03791248 -0.35072273 -0.28219897 -0.2794787 0.5603698 -0.041438006 0.13623546 -0.022628402 -0.25938165 0.44273332 -0.623856 0.21560298 0.64175093 -0.1968379 -0.14761211 0.089573994 -0.35757816 0.096620165 -0.3497878 -0.06729235 0.3720536 -0.21762624 -0.04041067 -0.24056502 -0.017856924 -0.65593255 0.5441924 0.0076349387 0.15832275 -0.0052751484 -0.09709007 -0.6235305 0.016382381 0.34495535 0.6567171 0.17239676 0.4193715 0.2952105 0.14450946 -0.2943023 -0.02531574 -0.14740346 0.32468748 0.48676333 0.40798694 -0.06791733 0.5182147 -0.18779433 0.48836452 0.37054774 -0.093501076 0.36534715 -0.4501703 0.66680974 -0.2916722 0.29954097 0.25147274 -0.40260324 0.14272194 -0.63020766 0.042679958 -0.2785648 -0.2411633 -0.21603191 -0.24748677 0.33730844 0.08692931 -0.12147533 -0.072814725 -0.426083 -0.104636036 0.30723706 0.3931111 0.44099075 -0.27032837 0.11934616 0.11724696
claro -0.03871814 0.3397798 0.5067273 -0.27366284 0.043921974 0.13186108 0.42623466 0.6032776 -0.21577148 -0.22640379 -0.30588898 -0.09317161 0.27296543 0.13137682 0.3454244 0.3916161 -0.09265479 0.09167899 0.7759137 -0.027907122 0.21251424 -0.18253444 -0.16994774 0.1102719 0.04482145 0.06044544 0.114446014 -0.33741537 0.14702213 0.18650158 -0.2669157 -0.21081497 -0.31861162 -0.6008504 -0.15143101 0.8111769 0.112861685 0.11654657 -0.263863 -0.6343584 0.026981529 -0.60544705 0.0969183 -0.04545093 0.39727253 -0.2811507 -0.041686352 0.14885294 -0.20749968 -0.2488446 0.21482386 0.37153938 -0.6031929 0.046143327 -0.49497208 -0.27828932 0.5263644 0.20627223 -0.07530024 -0.49308038 -0.24365772 0.17594922 0.14855672 0.20580497 -0.051869746 0.3679536 0.075399704 0.10692547 -0.106039904 0.4930313 -0.17663237 0.42345342 -0.060116243 0.23149627 0.4539514 -0.4142912 -0.014448577 -0.29400927 0.21547256 0.22604632 -0.19958258 0.029207945 -0.33519554 -0.5094452 0.16180302 -0.71505564 0.16973688 0.23198567 0.2043242 0.2254418 -0.3887014 -0.013488161 -0.12366678 0.2915077 0.23083098 0.38542098 0.054167982 -0.0732353 0.049239386 0.34930563
esta -0.038225975 0.4584594 0.06756376 -0.660432 0.60506505 -0.19384496 0.55626893 0.9787868 0.033376835 -0.09591847 -0.4000955 -0.38419232 0.0088384915 0.18922257 0.08080221 0.24485692 -0.039315104 0.15050024 0.37958944 0.025146583 0.37399453 0.36839202 0.39032868 -0.20992003 0.22134858 0.050384764 -0.44015577 -0.47214144 -0.02145639 -0.49008974 0.17969866 0.31253576 -0.38293672 -0.19730324 0.4252744 -0.0032690384 0.41156796 0.32030955 -0.5715081 0.14225967 -0.3054546 -0.06434018 0.25845286 0.041467167 -0.10203237 0.025341809 -0.5337214 0.46507764 -0.03674007 0.038665548 -0.053298574 -0.3075831 -0.0036415749 0.38228846 -0.18809538 0.3075083 0.1285484 0.5399029 0.030731298 -0.4131199 0.36996743 0.13864452 0.12692203 0.26890588 -0.21493427 0.2403066 0.0101143075 -0.08349972 -0.16373199 0.26934958 0.005801444 -0.30007744 -0.43238136 -0.31233582 -0.4068915 -0.4089491 -0.26756617 -0.2657467 -0.038051687 -0.17644328 -0.48282072 0.5316891 -0.3647839 -0.53613853 0.30575505 0.25329015 0.47064337 -0.24527237 0.4074378 0.23535925 0.32121828 -0.053208712 0.11730419 -0.0855986 -0.015730878 0.19148947 0.3874309 -0.4423546 0.1325694 0.3628053
mañana 0.019056508 -0.1637628 0.33400798 -0.58563864 -0.107774295 -0.24414542 -0.18518765 -0.043333076 -0.1708555 -0.11130896 -0.07165454 -0.2710885 0.49309662 -0.1654206 -0.036817092 0.15694442 0.528845 -0.24191496 0.15180996 -0.1320351 0.37290275 0.014376608 0.5907768 -0.32729092 -0.096274644 -0.27863666 -0.119157664 0.31055415 -0.2270201 -0.2259949 0.45685893 0.55784005 0.23005086 -0.12195292 0.08147402 0.3385928 0.24189357 -0.859069 -0.6630547 -0.11046476 0.17157452 0.03520807 0.0030579658 -0.4152425 0.1969339 -0.19040707 -0.37033585 -0.014463003 -0.5714441 0.17904074 -0.16359368 0.06385272 0.11535769 0.44697964 -0.3975813 0.18481208 0.052426264 0.5440942 -0.06441198 0.21129361 0.15978657 -0.08383923 -0.13014783 0.008801412 -0.36887524 0.20119989 0.17287455 0.13252388 0.18854538 0.6058683 -0.3826084 -0.22706649 0.1761228 -0.033778038 0.12592591 -0.21864597 0.33393037 -0.28557009 -0.11391526 0.18180823 -0.14051983 -0.115288176 -0.34288454 0.6285059 -0.72085 0.31503224 0.027708342 0.06870366 0.308945 0.24041018 -0.065658316 0.34340665 -0.44689715 -0.16652042 0.036433224 0.18158492 0.3024143 -0.21661974 0.31064096 -0.048748173
persona 0.19195984 -0.064390324 0.20644175 -0.23900998 0.2621501 -0.13712981 0.78520113 0.419083 0.030228896 0.16102792 -0.23726815 0.028903719 0.82891774 -0.73191714 0.14158253 0.011878665 -0.04391955 -0.26088893 -0.23347917 -0.018343773 0.4362917 0.18368825 0.044853576 -0.105348915 -0.27807656 0.06972098 0.042361453 0.25623325 -0.34997195 -0.28015116 0.2867517 0.62551653 0.10885265 0.4146443 0.7236319 0.44126523 -0.26971623 -0.42038032 -0.59034085 -0.3617226 0.036413345 -0.12777242 -0.06447315 -0.53526497 -0.60457844 -0.3805729 -0.2813334 0.20093621 -0.13187906 0.5569262 0.02342344 -0.32264304 -0.28501523 0.41394266 -0.33709815 0.76209044 0.68671674 0.2848404 0.07195851 0.110915944 0.5814492 0.33131084 0.41598913 -0.058226682 -0.612642 0.5630994 -0.28162426 -0.41261357 0.12953049 0.39871308 0.033895236 0.006267501 0.31968182 -0.57346606 -0.22632824 -0.5649915 0.21241571 -0.40750816 -0.43740037 0.38366246 0.21893688 0.5238065 -0.31222814 0.40105775 -0.0035052595 0.18750554 -0.11959402 0.26841813 0.22534342 -0.35649195 0.51618844 0.4814479 -0.18397255 0.1968011 -0.008362761 0.5584448 0.058407936 -0.36566556 0.1840516 0.07540108
navegador 0.6201561 0.03158219 0.25919774 -0.94162303 0.3050782 -0.41603133 0.21744873 0.74017733 -0.15498582 -0.38750425 -0.14652508 -0.24346043 0.1361936 -0.17146707 0.16254549 0.13307898 -0.047582038 -0.11291368 0.62549627 -0.009241344 -0.050350945 -0.14563681 0.32000005 -0.42291233 -0.27574658 -0.104607955 -0.107326806 0.16643745 0.038567163 0.3351153 0.23323151 -0.064468406 0.17257696 -0.5537974 -0.014455763 0.5395888 -0.0059729265 0.15705127 0.1325677 -0.42772278 -0.018015673 -0.27123445 0.14656773 0.30108875 0.44450027 0.16466208 -0.22190309 0.16570115 -0.47451976 0.1740457 0.06500288 0.17746544 0.12074514 -0.31546247 -0.41880083 0.032760296 0.2901132 0.42735338 -0.060963046 -0.10582936 0.05917208 0.067989565 -0.35560942 0.12738259 -0.051148042 0.22243527 0.11683539 0.13529363 -0.03585975 0.58290577 -0.003299243 0.05943941 0.005810893 0.14477398 0.6212544 -0.665763 0.46981606 -0.56839615 0.01103438 0.0045584543 -0.39478916 0.15408443 -0.5610316 -0.36111954 0.28558514 -0.23729673 0.33970794 -0.11873641 0.39154288 0.18582843 0.115679316 -0.35784456 -0.04247426 -0.29956004 -0.036253188 0.35420468 0.017198518 -0.60022414 0.13079187 -0.07921341
